/* Auto-generated by scripts/export_policy.py — do not edit by hand.
 * Source model: selfplay_rewfix.zip  |  net: 16 -> [256,256] -> 2 (tanh)
 * Deterministic SAC actor: action = tanh(mu(relu(W2 relu(W1 obs)))). */
window.RL_POLICY = {"obs_dim":16,"act_dim":2,"layers":[{"w":[[-0.325087,0.691245,0.394686,-0.661529,0.216986,0.236086,0.208392,0.275308,-0.104955,0.03846,-0.118156,0.060519,-0.026207,0.138051,0.157621,-0.33316],[-0.789255,-0.274472,0.158381,-1.495116,0.217458,0.024413,0.057508,0.010418,-0.190904,-0.115898,-0.039558,0.193573,0.54194,0.08336,-0.241647,0.698393],[-0.19625,0.596797,-0.131552,1.459331,0.316645,-0.313138,-0.054409,-0.103591,0.04024,0.046488,0.288538,-0.311325,-0.391937,-0.100544,0.216693,0.994824],[0.522834,-0.433074,-0.006903,0.412069,0.035859,0.038693,-0.03608,0.018814,0.192012,-0.293714,-0.077589,0.462264,0.175571,0.210655,-0.196895,-0.492148],[0.704416,-0.303587,-0.228387,0.321749,0.49743,-0.164045,0.01402,-0.015434,0.010744,0.442787,0.087277,-0.015075,-0.10955,0.10571,-0.072276,0.701657],[1.025222,-0.311386,0.458801,-0.176603,-0.338084,0.177159,-0.316132,-0.035962,-0.154301,-0.08163,0.076013,-0.007158,0.054112,-0.118549,-0.595653,0.277528],[-0.011081,0.217138,-0.501703,0.666858,-0.05591,0.242156,0.191321,0.222718,0.08547,0.132398,0.094333,0.63064,-0.515076,0.263197,-0.169743,0.003295],[0.194476,-0.19595,-0.099917,0.326042,0.026149,0.021605,0.035012,0.087058,-0.329334,-0.093882,0.059713,0.091586,1.289503,0.49015,-0.505282,-0.956009],[-0.547259,0.177325,0.854991,0.100298,-0.079379,0.030076,-0.192823,-0.124614,-0.034809,-0.017151,-0.044615,-0.025502,-0.292597,0.225028,0.160051,-0.319759],[-0.122326,0.531741,-0.267717,0.379453,0.259894,-1.066188,0.108749,-0.276934,-0.136634,0.058255,0.070151,0.020397,0.123591,-0.181052,-0.241476,0.122743],[-0.102826,-0.242811,-0.58167,-0.28643,1.144742,0.363837,-0.299055,0.456212,-0.098685,-0.164456,0.063074,-0.226481,-0.367016,0.114568,-0.471395,-0.012474],[-0.352888,-0.045214,-0.460762,-0.155081,-0.171539,0.115133,0.001691,0.13063,0.716365,-0.315366,0.20663,-0.491547,0.161594,0.481012,0.238497,-0.007886],[-0.06347,0.682474,-0.045228,0.119577,0.422265,-0.748324,0.472496,-0.031549,-0.007613,-0.02774,-0.104461,-0.166192,-0.005205,-0.211427,-0.467871,-0.072368],[-0.006224,0.59276,-0.26446,-0.09814,-0.323769,-0.087408,-0.09635,-0.039236,-0.404611,-0.644915,-0.083167,-0.035519,-0.761146,0.47473,-0.065334,-0.434415],[-0.532619,0.440912,-0.41813,0.854667,-0.075593,-0.055103,0.270342,0.134364,-0.30213,-0.338886,-0.015386,0.00331,-0.06301,0.059603,0.200655,-0.143752],[-0.348002,0.233099,-1.281177,0.421309,0.078523,-0.111392,-0.036866,0.034189,-0.316887,0.150763,0.230839,-0.344005,-0.227471,0.257396,0.847805,-0.254283],[0.090207,-0.842345,0.321226,-0.674185,0.552837,0.248875,0.160617,-0.161515,-0.449847,0.436224,-0.153718,-0.015463,-0.058995,-0.538473,0.442797,0.292404],[0.112475,-0.386882,-0.873174,-0.168581,-0.016913,-0.156824,-0.136927,-0.393968,-0.023581,-0.088314,-0.04891,-0.047976,0.630114,-0.011622,-0.188381,0.34759],[1.17471,-0.062467,-0.089338,0.448059,0.23139,0.007619,0.067539,0.136218,-0.267945,-0.004545,0.392997,-0.08363,0.070789,-0.452686,0.101296,-0.78395],[-0.537687,0.128544,-1.238253,-0.90647,0.356597,-0.408383,0.003979,-0.07904,0.504828,-0.193329,0.05036,-0.071509,-0.078609,0.080573,0.333871,0.517649],[1.503476,0.207192,2.816412,-0.023878,0.013522,-0.022267,0.008895,-0.019295,-0.083846,-0.03125,-0.005587,-0.048164,-0.167986,-0.685524,1.002564,-0.237187],[-0.423849,-0.00288,0.809942,-0.573124,-0.048973,-0.232029,-0.070863,0.057066,0.113476,-0.800372,-0.002969,-0.114028,0.473067,-0.123579,-0.049954,0.035235],[-0.044815,0.791323,0.20802,-0.410768,0.457862,-0.269085,0.008209,0.085002,0.085737,-0.242339,-0.176652,-0.301419,-0.603317,0.150371,0.074649,-0.713413],[1.142275,0.594168,0.388775,0.530321,-0.594094,-0.621432,0.060248,-0.298739,0.000142,-0.032531,-0.003359,-0.013624,0.167302,-0.653696,-0.106891,0.025027],[0.128839,0.315236,-0.016339,-0.295839,-0.053783,-0.296725,0.046808,-0.073311,-0.073496,0.057959,-0.012002,-0.063914,0.966997,0.044198,0.339451,-0.398082],[-0.351953,0.010754,-0.669901,1.023508,0.435943,-0.426489,0.126381,-0.163266,-0.146813,0.096064,-0.050803,-0.158157,0.620611,0.37524,0.396605,-0.084314],[-0.236284,0.209117,-0.531745,-0.293026,0.149735,0.133043,0.120182,-0.178111,-0.056812,-0.05672,0.139902,-0.088904,0.958469,0.449764,-0.380482,-0.362982],[0.725663,0.209286,0.148949,0.359202,-0.099254,0.126945,-0.025456,-0.016027,0.231094,0.16121,0.19802,0.102628,0.687947,-0.000223,-0.215314,-0.356617],[0.894565,0.157991,0.253505,1.448454,-0.113225,-0.045767,-0.123965,-0.01423,-0.407584,0.147918,-0.10529,-0.014483,0.280576,-0.057159,0.112623,-0.098756],[0.371363,0.403539,0.4033,0.873989,0.110585,-0.111875,-0.004397,-0.134363,-0.000163,-0.116681,-0.074136,0.003878,1.089754,0.457052,-0.151256,0.012694],[0.318721,-0.594557,0.35592,0.834732,-0.018003,0.099307,-0.06431,0.026197,0.042201,-0.002753,0.036725,0.051275,1.002244,-0.210981,0.682622,0.713538],[-0.658735,-0.246435,-0.359013,1.150478,0.449706,-0.078564,0.067386,-0.01092,-0.28592,0.058392,-0.118909,-0.114476,0.619444,-0.102404,0.474067,1.451484],[-0.360663,0.056007,-0.584657,-0.371838,0.160536,-0.207902,-0.017847,-0.248046,-0.441187,-0.197737,0.158721,-0.018217,0.970739,-0.039858,0.418255,-0.030697],[-0.092002,0.73332,0.41372,0.659881,0.739337,-0.266914,-0.112509,-0.191636,0.112188,-0.132721,0.226777,-0.044644,-0.050539,-0.430593,-0.091172,-0.446372],[-0.665259,0.07582,1.040397,0.02975,0.420196,0.62123,-0.017982,0.172849,0.180463,-0.228564,0.117122,-0.347914,-0.799069,-0.155085,-0.253658,0.027188],[-0.375438,1.30701,0.419439,-0.215721,0.03373,-0.048541,-0.123147,0.030974,0.037818,0.090014,0.096459,0.014396,-1.502691,-0.48942,0.790916,-0.688202],[-0.434281,-0.199963,-0.347018,0.67054,0.162394,0.192045,-0.327521,-0.273503,-0.403695,-0.353986,0.087385,0.083127,0.175416,-0.088345,0.485087,-0.136664],[-0.411269,-0.394162,-0.706728,-0.361826,0.099717,-0.151027,0.281085,-0.203356,-0.229937,-0.228245,0.095263,0.141409,0.574391,0.157604,0.593786,0.538045],[0.754529,0.450964,0.070951,-0.74135,0.055732,0.191889,-0.017087,-0.003467,-0.106484,0.300519,-0.074079,0.088817,-0.679048,-0.364426,0.078652,0.746987],[1.221077,-0.564667,1.255309,0.061578,-0.074489,0.242518,0.029547,0.020401,-0.099566,0.077212,-0.023316,0.028169,-0.033257,-1.010025,-0.334263,-0.321069],[-0.204633,-0.220367,-0.393915,0.058283,0.018119,0.325922,0.152677,0.221685,-0.348806,0.033664,0.312962,-0.260479,0.29664,0.455047,0.331299,0.526262],[-0.60931,0.055829,0.417066,0.408528,-0.236344,0.1827,-0.171165,0.220535,0.185031,0.367484,-0.06349,-0.026592,0.58252,0.320503,-0.529238,-0.589455],[-0.395116,-0.282446,1.581962,-0.505144,0.044361,-0.033487,0.001266,0.036483,-0.115837,0.065749,-0.045605,0.007023,-0.012256,-0.133137,1.097745,0.46668],[-0.483938,0.144735,0.3022,1.154073,0.37102,-0.227471,0.090154,0.127479,-0.151263,0.047419,-0.127832,-0.085105,1.186785,0.137026,0.014687,-0.192413],[-0.123858,0.178999,-0.271298,-2.381431,-0.232112,0.123844,-0.019865,0.046393,-0.067625,-0.024987,-0.015377,0.037537,-0.454752,0.106067,-0.075291,-0.79135],[0.019675,0.638067,0.563783,-0.039302,0.530261,-0.194735,0.130412,-0.479448,-0.412581,0.068475,0.105664,-0.065727,-0.306435,0.132979,-0.33343,-0.314445],[-0.037962,-0.071255,-0.847815,-0.697596,-0.199318,-0.058224,-0.09738,-0.294214,0.003205,-0.184832,0.089232,-0.093288,-0.006582,0.210328,0.586225,-0.100926],[0.290272,0.096832,1.169484,-0.748802,0.497747,-0.176898,0.118615,-0.260101,0.002566,0.021042,-0.05844,-0.103047,-0.625109,-0.363746,0.487526,-0.412997],[0.245532,0.442912,-0.097322,0.706203,-0.324904,0.194715,-0.153835,0.222601,-0.09671,-0.176939,-0.150772,-0.186418,0.537013,0.090417,-0.227763,0.041124],[0.508413,-0.521613,0.420876,0.31771,-0.582943,-0.059922,0.084406,0.065347,-0.228435,-0.007111,0.09874,-0.214044,0.619137,-0.110762,-0.248843,0.078139],[0.907488,0.617589,0.721978,-0.445789,-0.256779,-0.254747,-0.087187,0.192168,0.073569,-0.079152,-0.011083,-0.082325,-0.345751,0.186378,-0.961235,-0.003682],[0.298389,-0.739251,0.922025,-1.09731,0.088836,-0.063052,0.004252,-0.112427,-0.22174,-0.00015,-0.10716,0.001039,0.292764,0.141128,-0.478892,-0.011943],[-0.441413,-0.342243,-0.780828,-0.068917,0.468297,-0.079169,-0.045383,-0.088941,-0.050726,0.314765,0.173637,0.209581,-1.239403,0.260297,0.060692,-0.044167],[1.036752,-0.496315,0.568812,0.245043,0.065131,-0.012385,0.341971,-0.097142,0.213817,-0.044269,0.254188,-0.055275,-0.28828,-0.355004,-0.411748,0.156469],[-0.954115,0.034571,0.555044,-0.45433,0.554787,0.052556,0.256414,0.242933,-0.135261,0.153231,0.156077,0.34438,-0.249686,-0.190015,0.480895,-0.329813],[0.235247,-0.281128,-0.131923,1.016316,-0.082767,0.062048,0.04617,0.099172,0.073017,-0.055936,-0.026848,-0.026455,0.1237,-0.087372,-0.578021,0.732643],[-0.899214,-0.890046,0.297352,-1.047151,0.11344,-0.032875,-0.047988,0.015706,0.054989,0.141921,0.087701,-0.003225,0.359475,-0.179617,-0.324736,0.810325],[-0.314226,-0.214234,-1.007582,-0.003334,-0.014047,0.012885,-0.040386,-0.038902,0.292704,0.181955,-0.387009,-0.117344,0.098806,-0.175861,0.866624,0.018116],[0.3864,0.071743,1.228669,2.064722,0.156378,-0.057628,0.030255,-0.056237,-0.007054,0.10109,-0.005888,-0.007611,0.485099,-0.037835,-0.358554,-0.020021],[0.579136,0.303007,-0.345635,0.514154,-0.022778,5.4e-05,-0.01053,0.013901,0.241741,0.120411,-0.063671,-0.110449,0.509235,0.011735,-0.367255,-0.041604],[-0.301228,0.38996,-0.36374,1.262117,-0.015814,-0.020739,0.19185,-0.038945,0.046521,-0.093261,0.256423,-0.022257,-0.603854,-0.01531,0.39461,-0.116995],[-0.836322,0.263046,-0.303165,1.468867,-0.051977,0.087359,-0.082355,0.055805,-0.012462,0.046583,-0.032978,0.027284,0.986798,0.234228,0.547945,0.501144],[0.830307,-0.356828,0.807126,-0.295497,0.637268,0.011867,-0.152412,-0.017611,-0.214139,0.15981,-0.096615,0.11292,0.295242,-0.029383,-0.796957,0.283568],[-1.150316,-0.965565,0.130381,-0.33614,1.320723,0.822191,-0.079431,0.062639,0.017837,0.011199,-0.07324,0.046303,0.096753,-0.632764,-0.185538,0.151263],[-0.166195,0.080345,0.100832,-0.348055,0.541401,-0.314451,0.075535,-0.130158,0.145307,-0.733063,0.054634,-0.255794,0.403679,-0.252649,0.117641,0.305517],[1.244188,-0.772901,1.491228,0.105641,0.080294,-0.014068,-0.045318,0.00151,-0.17653,-0.001779,0.046092,-0.025938,0.839599,-0.98386,0.216504,0.33171],[-0.383854,-0.127453,0.995752,-0.704102,0.363646,-0.319889,0.057721,0.168001,-0.233164,0.151747,0.031758,-0.34406,0.099825,0.41587,-0.542729,0.140445],[-1.143249,0.389283,-0.190032,1.49678,0.447353,0.108201,-0.209701,-0.022941,-0.271461,0.117004,0.063073,-0.011106,-0.138568,0.165651,-0.200957,-0.268251],[-0.049419,-0.256282,1.158755,-0.062834,0.0789,-0.017992,-0.091497,0.027772,0.02175,0.02386,-0.086373,-0.042662,0.114813,-0.499216,0.200013,0.746848],[-0.419861,0.236807,-0.184993,-0.464424,1.181839,-0.667103,0.195833,-0.3484,0.22324,0.130247,-0.106257,0.350162,0.09608,-0.160643,-0.441625,0.177523],[0.013693,-0.306843,0.087954,0.518028,-0.20076,-0.15708,0.233417,-0.132118,-0.386966,0.399237,0.022868,0.569861,0.468619,0.154459,-0.026099,-0.582875],[0.005081,-0.78734,-0.676312,0.079583,0.281622,0.040783,0.249612,-0.154583,0.082045,-0.006915,0.007642,0.116566,-0.752183,-0.141552,0.245632,0.501431],[0.388237,0.338686,0.027315,1.116613,0.261125,-0.414854,-0.008622,0.011887,-0.069699,0.031598,-0.062052,-0.123974,-0.331803,-0.292104,-0.208419,-0.651475],[-0.028099,0.073383,-0.73022,-1.183718,0.340179,-0.002016,0.221195,-0.09629,0.066578,-0.259369,0.200243,0.211915,0.387938,-0.222827,0.26433,-0.459363],[-0.079237,0.498072,0.632938,-0.839851,0.31295,-0.259415,0.018615,-0.13243,-0.100208,-0.082304,0.202484,-0.068483,-0.613193,-0.372726,0.25068,-0.208217],[-0.611224,0.113848,-0.052611,0.712217,0.260055,0.47578,-0.026102,0.22901,-0.28069,0.232793,0.286783,-0.307639,0.150523,-0.445317,0.442462,0.395908],[-1.202096,0.306569,-0.578313,-0.860074,0.345367,-0.21749,-0.157267,-0.032458,-0.087173,0.066136,-0.030443,0.013984,-0.323281,-0.155564,-0.280625,0.104006],[-0.234074,-0.370892,0.807291,-0.044062,0.28489,-0.259891,0.091117,0.03191,-0.460956,-0.02776,-0.157171,-0.34846,-0.266902,-0.521123,0.23735,-0.421602],[-0.65476,-0.046439,0.23258,-0.057081,-0.112993,0.071539,-0.003262,0.080853,-0.140852,0.04273,0.079034,0.083262,0.410042,0.131992,0.864224,-0.678833],[0.013215,0.288439,1.195869,0.494592,0.263097,-0.186726,0.177923,-0.0335,-0.054937,0.061514,-0.028395,-0.157599,-0.131296,-0.087957,-0.27439,0.217802],[-0.404165,0.304025,0.719894,0.077186,-0.108311,0.024055,-0.084358,0.090227,-0.097696,0.613206,0.019427,0.531824,-0.609007,-0.208465,0.18325,0.603588],[-0.104167,-0.047819,-0.80534,0.370759,0.311534,-0.062424,-0.133147,0.125529,-0.541023,-0.481248,-0.392847,0.046117,-0.746882,0.071772,0.36651,0.278087],[0.454648,-0.685206,0.901799,0.848369,-0.041875,0.07025,-0.042216,0.058263,0.204581,-0.237659,0.018783,-0.30514,0.87886,0.007644,-0.44142,-0.456214],[-0.695917,0.811639,0.226009,-0.054476,0.991365,-0.845836,-0.005337,0.064606,-0.025974,0.008506,-0.040286,0.084291,0.32053,-0.478842,-0.153177,-0.089016],[-0.594972,0.163507,-0.504457,1.193195,-0.377882,-0.079995,-0.276296,0.031465,-0.042534,-0.084976,0.048339,0.039207,0.366868,0.309782,0.017039,0.703572],[-0.290787,0.304462,-1.104164,0.204048,0.000432,0.124121,-0.013415,0.088075,-0.399783,0.024228,-0.093362,0.074943,-0.445478,0.238716,1.058148,0.07314],[0.252708,-1.170193,0.179989,-0.511465,-0.063768,1.199926,0.066802,0.387422,-0.01736,-0.032077,0.02506,0.04498,0.093337,-0.044101,-0.318547,-0.027667],[-0.246647,0.609424,-0.067272,0.492055,-0.265892,0.040656,-0.180056,0.106614,-0.092289,-0.204414,0.179035,0.169707,0.185875,-0.19612,-0.406566,-0.651674],[0.572976,0.447976,0.466691,-0.344422,0.006177,-0.410558,-0.17149,-0.085351,-0.070661,0.130316,-0.061844,-0.086212,0.176403,-1.037508,0.4413,-0.090803],[-0.007673,-0.480892,0.148957,0.597262,0.034044,1.192634,0.098994,0.313098,0.07527,-0.006652,-0.041134,0.000776,-0.537406,-0.462959,-0.122532,-0.175604],[-0.217735,-0.355192,0.380598,1.046345,0.154306,0.556418,0.076974,0.224357,-0.127544,-0.01441,0.001394,-0.012702,0.102103,-0.443615,0.779195,-0.028517],[-0.091447,-0.225126,1.116321,-0.055353,0.137802,0.018881,-0.170994,0.02394,-0.806536,0.104882,-0.102799,0.232094,0.288948,-0.120054,0.265746,0.504682],[-0.264704,-0.31513,-1.21605,-1.038153,-0.131129,-0.052526,0.046693,0.000488,-0.256665,0.199809,0.148307,0.126339,0.407705,0.237464,0.826797,0.238591],[0.182667,0.833335,-0.245741,0.688939,-0.238314,-0.816762,0.201272,-0.179897,0.012957,-0.156483,0.068605,0.128212,-0.449551,-0.219944,-0.218265,0.10897],[-0.722099,-0.244264,0.389851,0.813048,1.07397,-0.082972,0.025511,-0.088109,0.26179,-0.071986,-0.024952,-0.023831,-0.033882,0.215822,-0.525676,0.567714],[-0.169294,0.127844,0.418037,-0.332404,0.017037,0.223866,-0.068878,0.160452,-0.927608,-0.268729,0.105473,0.062161,-0.24719,-0.122773,0.007107,-0.693884],[-0.473679,-0.310487,-0.549532,-1.171482,-0.046814,-0.079137,-0.105633,-0.092805,-0.463907,0.292177,0.078071,-0.404224,-1.009864,0.47516,0.214375,0.16853],[-0.400739,-0.517079,0.243652,0.608983,-0.458478,0.099224,0.004172,-0.064104,-0.159689,-0.146037,-0.23929,-0.199448,-0.096962,0.00631,-0.063951,-0.405923],[-0.134572,0.609207,1.110164,0.506093,0.007962,-0.00041,0.023479,-0.049677,-0.089379,0.003376,0.009682,-0.022168,-0.434173,-0.793147,1.083094,-0.511665],[-0.354729,-0.246035,0.204024,0.314308,0.439428,-0.077428,-0.084017,-0.019867,0.085686,0.011912,0.166545,0.126803,1.677187,-0.083718,0.034091,0.001255],[-1.013238,-0.146555,-0.068429,-0.532505,0.055398,-0.012817,-0.02564,-0.029539,-0.419855,0.10931,0.112518,0.095976,-0.460758,-0.105022,0.695216,-1.249326],[-0.779689,-0.59809,-0.77006,0.894402,0.05992,0.048008,-0.073368,-0.09797,0.267333,0.131397,0.075386,-0.071182,0.550267,-0.04891,0.918783,-0.59475],[-0.798918,0.130398,0.578568,0.853443,0.232534,-0.701438,-0.034759,-0.176195,-0.405105,0.193742,-0.047283,0.236586,0.028286,0.049631,0.092503,0.027031],[0.745515,-0.812574,0.646226,-0.967438,0.118724,-0.068015,0.047411,0.009197,-0.543456,0.782961,-0.169408,0.177913,-0.293319,-0.165081,-0.087665,-0.064212],[-0.061994,0.322764,0.405368,0.680795,0.46067,0.092771,-0.211357,-0.2477,0.180818,0.373363,-0.16608,-0.050393,0.442993,-0.252418,-0.283897,0.278136],[0.388408,-0.221794,0.366448,1.020631,0.023979,-0.202922,-0.043207,-0.06663,-0.248734,0.126642,0.120653,-0.22767,1.377521,-0.414597,-0.075576,-0.063357],[-0.646293,0.167803,-0.512664,-0.076072,-0.084118,-0.133694,-0.08963,-0.061384,0.546051,-0.091554,0.364372,0.049971,-0.216832,-0.004659,0.978982,0.436939],[-0.752105,0.299121,0.725545,1.040071,0.011689,-0.601469,-0.063523,-0.079125,0.002117,-0.062016,0.11338,-0.149975,0.17568,-0.732886,0.41821,0.285218],[-0.637986,-0.031784,-0.535057,0.777447,0.139099,-0.116319,0.079236,0.195027,-0.237743,0.146401,0.058566,0.309394,0.090677,-0.043776,0.317265,0.283081],[0.117386,-0.098725,-0.355929,1.103462,0.530552,0.362955,-0.125862,0.015911,-0.169426,0.272412,-0.311822,0.340064,0.084412,0.176478,-0.036502,-0.380918],[-0.488319,-0.932181,0.295336,-0.951644,-0.092643,0.120373,-0.077085,0.033595,-0.346942,0.039696,-0.122381,0.035179,0.737715,-0.08118,0.627732,0.656819],[-0.141258,-0.256655,-0.037086,-1.665375,-0.467034,0.053631,-0.329965,0.084806,-0.149074,-0.038629,0.017926,0.112665,-0.160193,0.020597,0.498226,-0.603478],[-0.078363,-0.113186,-0.011605,0.233547,0.538408,0.076979,0.135772,-0.046439,-0.439065,-0.448089,0.019365,-0.042034,-0.476768,0.41943,-0.321116,-0.128748],[0.80367,0.50386,0.423303,0.279825,-0.018472,0.173982,0.18369,0.034488,-0.140219,-0.058794,-0.047493,-0.065745,0.791452,-0.60221,0.209898,-0.484828],[-0.291306,0.273745,-0.174719,-0.344468,-0.161048,0.080349,-0.075187,0.003627,0.271245,-0.364084,-0.039135,-0.078173,-0.719376,0.036915,-0.339643,0.214748],[-0.23476,0.424923,0.586211,0.399033,0.215655,-0.140596,-0.215079,0.209904,-0.010365,-0.15084,0.027289,-0.2817,-0.771548,-0.427896,-0.029263,-0.117024],[1.010965,-0.094512,0.893955,0.02895,0.114352,0.126473,0.286589,0.415416,-0.032116,-0.054064,-0.031589,-0.034376,0.012561,-0.682417,-0.146485,-0.165422],[-0.001944,0.222932,0.231251,-0.608274,0.199909,-0.044537,0.137813,0.137306,0.229985,0.013525,0.136213,-0.009592,-0.980137,0.185998,-0.167145,-0.213703],[-0.203023,0.322197,-0.705772,-0.783548,0.036558,0.235526,-0.079604,0.167058,-0.045123,-0.081742,-0.161139,-0.08739,0.340337,-0.560356,1.153877,-0.332611],[0.189643,0.274997,-0.400842,-1.247733,0.187777,0.108543,0.233324,-0.039515,-0.453194,-0.204337,-0.086647,-0.208341,-0.192472,0.064305,-0.195176,0.143129],[-0.26611,-0.149487,0.312768,0.047298,0.065483,0.074487,-0.063814,-0.028082,0.536642,0.719036,-0.051171,0.277042,-0.366711,0.285551,0.512277,0.19136],[-0.802172,0.041654,-0.316563,-1.022187,0.24228,-0.062411,0.073919,-0.066731,-0.071787,-0.089996,-0.085778,-0.081316,0.115849,0.177084,0.660371,-0.51291],[-0.673847,-0.077749,-0.610682,0.713248,0.067962,-0.129387,0.051883,0.152482,-0.244544,-0.124102,-0.064646,-0.087234,0.510429,0.207218,0.601111,-0.838051],[0.282676,0.690704,0.529192,1.181757,-0.315681,0.132422,-0.068426,-0.078923,0.182514,0.245915,0.058561,0.106521,-0.547834,0.506439,-0.530789,-0.139269],[-0.077771,0.100069,-0.102689,0.078787,-0.041068,0.016694,-0.009712,-0.005496,-1.162658,-0.133363,-0.092174,-0.122148,-0.001796,0.127265,0.160274,-0.110961],[-0.421606,-0.571344,0.112027,0.058334,0.131712,0.055604,0.097526,0.134739,-0.104294,-0.037414,0.17154,-0.270588,0.800534,0.214671,0.103311,0.760194],[-0.482929,0.215513,0.047357,-0.585967,-0.083298,-0.154413,0.026663,0.15075,-0.862942,-0.252336,-0.085687,-0.295394,-0.458947,0.077869,0.635618,0.242156],[-0.318895,0.223118,1.040964,0.515253,0.439198,0.093487,0.161692,-0.139418,0.005824,-0.052166,-0.19167,-0.18327,0.274836,-0.892971,0.468922,0.07616],[-0.63805,-0.228062,-0.108286,-0.816216,-0.023526,-0.006193,0.094544,0.03915,0.00525,-0.172023,0.090601,-0.032409,-0.406444,-0.275291,0.534189,0.252603],[0.014874,0.362571,0.804368,0.189308,0.085681,0.076713,-0.144863,0.104313,-0.010832,-0.032028,-0.000553,0.014634,0.162989,0.192684,0.479419,-0.775464],[0.390671,-0.126159,0.96959,0.253647,0.133899,-0.098368,-0.114255,-0.175526,-0.084524,0.20813,0.432933,-0.254645,-0.282711,-0.011234,-0.943474,0.041619],[-0.207824,-0.333423,-0.139571,-1.012812,0.513675,-0.043954,-0.021095,-0.255986,-0.242747,-0.219729,0.031563,0.138575,-0.81981,-0.084927,-0.534164,0.611632],[0.346731,0.034513,0.316353,0.845283,-0.127057,-0.045875,-0.097995,0.17671,-0.171365,-0.088418,-0.013143,-0.010258,-0.289538,0.025177,-0.174929,0.923745],[-0.385647,0.021668,0.309136,-0.666791,0.039862,-0.223694,-0.067369,0.03207,0.329092,0.066559,0.029576,0.204832,0.162259,0.233985,0.329302,-0.000225],[-0.562484,0.108665,-0.622555,-0.768915,0.059526,0.003572,0.105733,0.023422,-0.097466,0.46104,0.087917,0.203699,0.334107,0.33448,0.521643,-0.547197],[0.488015,0.463602,-0.266846,-0.339327,-0.011741,0.39195,-0.005046,0.233617,-0.350827,0.150485,-0.148631,0.08224,0.534331,0.664859,-0.646167,0.043013],[0.85557,-0.353809,0.023161,-1.564933,-0.209484,0.044569,0.073664,0.059745,-0.129058,-0.01252,-0.017805,-0.048684,0.316561,-0.309707,0.203178,-0.528488],[-0.134767,0.525162,-0.248235,0.736392,-0.259986,0.420182,-0.501174,0.422764,0.242677,0.102041,-0.060532,-0.004383,-0.695182,-0.051558,0.016172,0.261276],[-0.183175,-1.095205,0.136093,-0.552266,0.013526,-0.106674,0.022858,0.072484,-0.042099,-0.007854,0.094743,0.037679,-0.527683,0.28844,0.258574,-0.400672],[0.36962,0.019386,0.394427,0.821361,0.823173,0.257547,0.228055,0.272466,-0.081129,-0.094965,0.186575,0.147925,0.968725,0.50349,-0.535722,0.305276],[0.693775,0.043605,0.740575,-0.567097,-0.189039,0.116335,0.027054,-0.15426,-0.14275,-0.158033,-0.094619,-0.05609,-0.398289,0.124986,-0.818334,0.461344],[-0.396812,1.057015,0.880526,-0.292982,-0.053585,-0.232594,-0.064875,0.103824,-0.011198,-0.029748,-0.119913,-0.014177,0.094821,-0.128496,-0.204005,0.283196],[0.894998,-0.305384,0.285028,-1.071246,0.069862,0.1029,0.291169,-0.117227,-0.377339,0.327616,0.017913,0.117828,-0.327008,-0.52722,0.577829,0.211871],[0.438413,-0.284304,-1.304461,-0.583199,0.000386,0.012047,0.043365,-0.033258,-0.430396,0.358244,-0.032929,0.086022,0.161987,0.543223,-0.033859,-0.727634],[1.000605,0.853162,0.226789,-0.063614,0.210973,0.137669,-0.17866,-0.09056,0.284575,0.047615,0.119356,0.160698,-0.070879,-0.721347,0.241775,-0.264604],[0.054148,0.251193,-0.869831,0.444501,-0.375281,-0.20132,-0.105949,0.010222,0.121972,0.053067,0.018354,0.162245,-0.511299,0.263803,0.460642,0.207713],[-0.375582,0.127645,0.417718,-0.262014,0.054295,-0.15404,0.066678,-0.09658,-0.126501,-0.396206,-0.031808,0.028369,0.226871,-0.598583,0.99926,-0.152964],[-0.139071,-0.390112,0.590353,-0.179382,-0.009253,-0.33213,-0.213487,0.128172,-0.043302,0.273931,0.138525,-0.103332,-0.333589,0.257141,-0.274331,0.023891],[0.243991,-0.012771,0.9246,-0.08731,0.001554,0.016822,-0.017572,0.077426,0.053441,-0.076184,-0.121282,-0.080184,0.334828,-1.066445,1.03294,0.883078],[0.049092,-0.007423,0.006033,0.542332,0.070286,0.196183,0.350121,0.040909,-0.344002,-0.337311,0.024619,-0.140708,0.51782,0.330254,0.023915,0.307865],[0.264769,-1.092379,0.213973,0.004039,0.098832,0.03127,0.010803,-0.07297,0.021543,0.008492,0.047001,0.075119,0.072462,0.086844,-0.275213,1.360008],[-0.347881,0.325653,0.921917,-0.193494,0.830866,-0.469995,-0.204831,-0.152462,0.172938,-0.034379,0.15544,-0.137777,-0.101644,-0.302061,-0.174751,0.194991],[-0.602862,-0.129658,-0.513764,-0.319848,-0.280253,-0.254828,0.0348,-0.163163,-0.510378,0.062501,-0.378738,0.078598,0.210366,0.090571,0.635915,0.258117],[1.475854,0.004625,0.291523,0.10282,0.033396,-0.012677,0.003123,0.028789,-0.173135,0.031939,-0.084518,0.023447,1.368287,-0.11274,-0.119798,-0.02322],[-0.07984,-0.508222,-0.744574,-0.627974,-0.110645,0.489084,0.158859,0.110249,-0.12564,0.011978,-0.07749,0.002741,0.092603,-0.094278,0.028796,0.046296],[-0.575166,0.154755,0.17951,0.208316,-0.172738,-0.181092,0.000752,-0.093425,-0.266064,0.490389,0.003297,0.40975,0.419965,-0.075151,0.384817,0.407281],[-0.481961,0.450529,-0.466753,0.738013,0.144569,-0.066457,-0.037624,0.023447,-0.062605,-0.632647,-0.047227,-0.446968,-0.289987,0.183961,0.579542,0.556531],[0.262885,0.785308,0.427795,-0.74324,0.01875,-0.005446,-0.087497,-0.106402,-0.093758,0.198881,0.029116,0.151227,-1.134405,-0.281643,0.525242,-1.350863],[0.600322,0.271787,-1.602535,0.110541,0.012949,-0.024473,0.157694,-0.097131,-0.122454,-0.236856,0.051008,-0.124318,-0.172304,0.400804,0.3353,-0.283701],[-0.095877,0.067575,-0.318735,-0.511352,-0.585406,-0.330463,-0.165834,-0.062924,-0.147676,-0.119638,-0.133592,-0.030811,0.842959,-0.415549,-0.008772,0.266867],[-0.163524,0.840611,0.384974,0.720691,-0.092759,-0.088361,0.02016,0.114369,-0.748679,-0.234527,-0.060573,0.013575,0.18867,0.620472,-0.130849,0.307889],[0.961442,-0.147226,1.061355,-1.113312,0.008726,-0.075564,0.016367,-0.048211,-0.042333,0.025767,0.002699,-0.0181,-0.438275,-0.707559,0.164667,-0.443386],[0.216302,0.238645,-0.329646,0.779253,-0.055361,-0.019729,-0.03357,-0.074516,-0.197602,0.082981,0.042348,0.023889,0.238858,-0.113885,-0.585412,-0.210291],[-0.850972,-0.085763,-0.089171,0.197251,0.738994,0.384665,0.172609,0.007403,0.112464,0.013919,0.046722,0.07373,-0.213248,-0.083857,-0.203938,-1.071193],[0.083099,-0.045472,0.753368,-1.251157,0.257174,0.022468,-0.055799,-0.280538,-0.107109,0.377835,0.029671,0.652676,0.096783,0.01538,-0.363134,-0.053673],[0.115794,-0.662028,-0.601717,0.045656,-0.290383,0.709863,-0.16523,0.050138,-0.230652,0.142871,0.028437,0.003717,-0.817246,0.111651,0.154288,0.239725],[-0.131957,-0.525458,-0.683829,-0.749037,0.002193,-0.036344,-0.011141,-0.028808,-0.061738,-0.030557,0.030037,0.084087,1.303644,0.290492,0.174626,0.225942],[0.506943,0.794675,0.969301,0.062919,0.125539,0.060896,0.205378,-0.112308,-0.05626,0.154765,0.024941,0.093997,0.789029,-0.441298,-0.210227,0.357227],[-0.275663,0.193526,-0.026321,0.5571,0.432297,-0.590752,-0.302761,-0.382898,-0.173123,0.079208,-0.082832,0.036971,0.875003,-0.220357,-0.571385,-0.479698],[-0.257041,0.819084,0.607348,-0.404238,0.187759,-0.30575,-0.125182,0.13895,-0.33008,0.1701,-0.048479,-0.039343,-0.650097,-0.537343,0.394691,0.109229],[-0.411775,0.329546,-1.010351,-0.031622,0.417001,-0.474704,-0.059892,-0.314541,-0.031854,0.010032,-0.059019,-0.009045,1.153103,0.05687,0.234012,0.937892],[-0.085044,-0.292536,-0.087414,-0.825251,0.310624,0.320398,-0.211058,-0.399117,-0.193013,0.057483,-0.322492,-0.234623,-0.301067,0.152746,-0.128112,-0.019372],[-0.333203,-0.031583,0.569363,1.645218,0.313198,-0.105956,-0.050553,-0.213059,-0.128491,-0.110561,-0.238042,0.121008,0.479575,0.122902,-0.014605,0.629264],[0.218504,0.01883,-0.796313,-0.62829,-0.05327,0.103686,-0.033737,0.052953,-0.026977,-0.071187,0.033216,0.038882,0.112859,1.047513,-0.833087,0.040763],[-0.378464,-0.272592,0.293791,-0.745,-0.293798,0.038466,-0.112591,-0.111094,0.045271,0.205482,-0.030221,0.062619,0.726779,-0.472655,0.46514,0.505877],[-0.289384,-0.115495,0.402252,0.058426,-0.000252,0.085913,0.059803,-0.036835,1.122193,-0.110527,0.090775,-0.031821,0.097345,-0.101752,0.025259,-0.047846],[-0.037197,-0.351744,-0.074194,0.129334,-0.269231,0.345943,-0.007333,-0.247119,0.197364,-0.100909,-0.108424,0.303046,0.711805,-0.237167,0.257491,0.081865],[0.070925,-0.175318,0.585676,1.502836,0.060728,0.038484,-0.003655,-0.075228,-0.15937,0.022478,0.059694,0.090886,-0.23878,-0.000428,0.260153,0.66144],[-0.984886,-0.395743,-0.230749,0.518146,0.907484,0.306717,0.105058,-0.14906,0.16183,-0.355293,0.143808,-0.090897,0.464182,-0.042257,0.37725,-0.261686],[-0.653033,0.558509,0.378524,0.434633,1.078233,-0.279711,-0.068145,0.203691,-0.173851,0.545421,-0.065159,-0.052044,-0.556314,-0.287973,-0.249392,-0.428095],[0.127196,0.055356,0.132283,-0.692514,0.254494,-0.08841,-0.058245,0.035782,-0.579686,0.898201,-0.100566,0.076388,-0.450328,-0.219753,0.586501,-0.104364],[-0.514508,0.825679,-0.051908,-0.428563,0.857847,-0.238491,0.012612,-0.166622,0.02376,0.025704,0.021399,0.133471,-0.393454,0.185038,0.089386,-0.039066],[-0.932913,0.939841,-1.385386,0.95527,0.020133,-0.107311,0.00107,-0.112714,-0.074823,0.092805,0.03871,-0.005597,0.020737,0.340666,0.311004,-0.56483],[-0.041589,-0.300476,-0.164643,-1.561428,0.264625,-0.158285,0.171884,0.058444,0.036676,0.246,0.109868,-0.141415,0.332356,-0.511173,-0.327056,0.00848],[0.579936,-0.356642,0.156172,-0.672239,-0.021122,0.030935,-0.03448,-0.027115,0.031591,0.032803,-0.019965,-0.043113,0.184486,0.768323,-1.107804,0.545465],[0.428003,0.308519,-0.91942,0.422759,0.254497,-0.244109,-0.059357,-0.022174,-0.630309,-0.004482,0.041167,-0.260604,0.081714,0.042636,-0.027335,0.598369],[-0.123939,-0.370473,-1.084805,-0.595104,-0.183903,0.475104,0.187851,0.227185,-0.091141,0.069943,0.079289,0.070462,-0.156144,-0.139532,-0.092582,-0.592911],[0.611317,0.283013,0.014608,0.044248,0.596296,0.096135,0.077583,0.138538,0.341156,-0.129083,-0.0551,0.040092,-0.918129,0.346291,-0.470192,0.393441],[-0.028739,-0.145524,0.528068,-0.23976,-0.142697,-0.115238,-0.078104,-0.090994,-0.054465,0.159075,0.073251,-0.066676,-0.306074,0.208225,0.107777,-0.040166],[0.764614,0.727795,1.213283,-0.324055,0.080019,0.001908,-0.006271,0.002358,-0.555411,-0.022698,-0.0606,0.103829,-0.900782,-0.52773,0.71275,-0.94387],[1.197463,-0.277358,0.208909,0.1816,-0.040746,-0.038052,0.138021,-0.032624,-0.058465,0.111251,0.095277,0.056004,1.23973,-0.644506,0.001071,0.532746],[0.531516,-0.218941,0.28383,-0.584418,0.178292,-0.590892,-0.150612,-0.227106,-0.016145,-0.172244,-0.018407,0.13662,-0.027269,0.323831,-0.694146,0.022241],[0.527664,-0.042402,-0.435199,-1.062299,0.02781,0.01737,-0.003133,-0.007089,0.098943,0.001667,-0.024796,0.072271,0.295517,0.198998,-0.857678,-0.393227],[0.521439,0.182033,0.148116,0.339543,0.156076,-0.196091,-0.036412,-0.012113,-0.209559,0.041299,-0.022376,-0.079605,-0.941292,-0.448039,0.382137,0.612365],[-0.533943,-0.756534,-0.111901,-0.88772,0.11283,0.006788,-0.154945,-0.116422,0.104541,0.103056,0.067925,-0.011175,-0.304447,0.501661,-0.144586,-0.881881],[0.043556,-0.420361,0.312406,-0.273373,0.765732,0.728311,-0.06214,0.152303,0.072389,0.00814,-0.106127,-0.02986,-0.686323,-0.009609,-0.234595,0.662189],[-0.138714,-0.535879,1.182996,0.098047,-0.155504,0.116871,-0.198693,0.088092,0.122856,-0.198694,-0.001879,0.015297,0.373749,0.218873,-0.162217,0.470126],[1.188126,0.811609,0.904648,0.756346,0.195017,-0.094915,0.223256,-0.075239,0.019824,0.144676,-0.014527,-0.061683,-0.086233,-0.28274,-0.518344,0.168135],[-0.563832,-0.145182,-0.359843,0.08098,0.003267,-0.052936,-0.062116,0.057704,-0.475112,0.287263,-0.107452,0.517699,0.038426,0.540515,0.33629,-0.426626],[0.128219,0.099553,0.367594,0.785048,-0.039614,-0.080185,0.045542,-0.048365,-0.162612,-1.135895,-0.044569,-0.413994,1.104017,-0.384639,0.690172,0.190298],[-0.743034,0.106818,-0.516588,1.146162,0.062984,-0.231276,0.165031,-0.004178,-0.490627,0.415824,0.033005,-0.243317,-0.356537,0.270462,0.730466,0.098654],[0.514295,0.143994,0.122001,0.625937,-0.413947,0.45167,0.062021,0.2241,-0.24132,-0.072123,-0.003648,-0.072131,-0.530808,0.176371,-0.40422,-0.229392],[-0.262593,-0.965114,-0.108237,-0.737003,0.496866,1.13422,0.140286,0.429711,-0.085066,0.016634,0.01368,-0.05639,-0.255315,-0.407615,-0.480242,-0.020774],[0.638792,0.513067,0.034341,0.561854,0.039402,0.180336,-0.054242,0.114523,0.06652,0.015834,-0.140056,0.070444,0.883652,-0.254639,-0.374741,0.710324],[-0.251497,-0.104565,0.116103,-0.470071,0.708537,-0.098106,0.448551,-0.372599,0.2029,0.397944,0.080005,-0.318486,0.156294,-0.592138,0.432687,0.492835],[0.8271,0.065583,0.337014,-0.30793,0.072329,-0.117906,0.152157,-0.101587,-0.045825,-0.009988,-0.037778,-0.001486,-1.324481,0.453588,-0.475608,-0.056971],[0.707327,0.054682,0.621789,-1.231755,-0.069931,0.101397,-0.136111,0.067087,0.004108,-0.306771,0.161118,0.060393,0.303322,0.01011,-0.338016,0.752675],[-0.260901,0.181923,0.087357,-0.423406,0.532592,0.399061,-0.005796,0.187027,-0.593203,0.181343,-0.128333,-0.062194,-1.028477,-0.831392,0.033899,-0.422194],[-0.009939,-1.086521,-0.090364,0.063864,-0.223132,-0.090478,0.006541,-0.098862,-0.121239,0.06544,-0.322721,0.210074,0.440344,-0.079435,0.041669,-0.099189],[0.437644,0.071506,1.135155,0.418399,0.1726,-0.137587,-0.043796,-0.041967,-0.419426,-0.733547,-0.002147,-0.237772,0.273367,-0.465789,0.130107,-0.764042],[-0.876008,-0.191186,0.068009,1.251867,0.030612,-0.079919,-0.009741,-0.135917,-0.244335,-0.066328,-0.253418,-0.102329,0.080723,-0.03755,0.737996,-0.510485],[-0.278219,-0.730039,-0.196953,1.233812,0.196023,0.392211,-0.046208,0.26922,0.091491,0.049433,-0.115539,-0.046455,-0.386737,-0.052914,-0.567869,0.121802],[0.665907,-0.009575,-1.19248,0.095607,-0.198149,-0.085631,-0.126072,0.085619,-0.024078,0.133779,-0.00808,-0.008463,-0.188407,0.384683,-0.611518,0.12221],[0.00521,-0.737392,-0.446464,0.670842,-0.004966,0.017076,0.044501,0.021553,-0.087126,-0.000812,-0.019396,-0.008799,0.196863,0.466822,0.036477,0.723907],[-0.380124,-0.231125,-0.41113,0.183419,-0.290846,0.510743,-0.101835,0.264252,-0.120004,-0.193832,-0.077435,0.21252,0.127558,-0.163539,0.581867,-0.00518],[-0.174684,0.420213,-1.828069,-0.452993,-0.139584,-0.186945,-0.028967,-0.137012,-0.019623,0.073593,-0.045873,0.123367,0.279851,0.44544,0.368788,0.106497],[0.396189,1.211874,-0.192658,0.846525,-0.001305,0.019376,0.010017,-0.178002,-0.315153,-0.166789,-0.056956,-0.019534,-0.438443,-0.28055,0.173966,0.532126],[0.502036,-0.466498,0.390687,-0.195269,0.603684,0.809332,-0.098718,0.072996,-0.265026,-0.422283,0.026569,0.01708,-0.401695,-0.616506,0.085248,-0.420242],[-0.583631,0.430789,0.632931,-0.393434,0.166945,0.138246,-0.101439,0.020135,0.340284,0.079284,-0.038517,-0.104048,0.101963,0.202972,0.433158,0.357832],[-1.036565,-0.660331,-0.049728,-0.538315,0.082443,0.545754,-0.034337,0.170256,-0.260898,-0.070174,-0.147377,0.131852,-0.194186,0.294065,0.525174,0.172937],[-0.056926,0.208137,-0.301876,0.736717,0.058764,0.117711,0.009362,0.179801,-0.029517,-0.015809,0.230484,0.191888,0.362849,0.724735,0.054369,0.072158],[-0.32346,0.529436,0.218813,0.878913,-0.041739,-0.269527,-0.038751,-0.117252,0.402654,0.288901,-0.258441,0.282355,-0.305824,-0.238158,0.002441,-0.335194],[0.71401,0.784968,0.284061,-0.3236,-0.036146,0.051763,0.015504,-0.085012,-0.201883,-0.164281,-0.169926,0.116394,-0.798826,-0.590874,0.252137,0.000634],[0.625343,-0.254726,0.492351,-0.513676,0.069428,-0.071273,-0.08753,0.12377,-0.11383,0.111114,-0.064248,0.004092,-1.51164,0.02387,-0.664489,-1.079862],[-0.030507,0.1636,0.157946,-0.212563,-0.332445,0.405779,-0.001375,0.009202,-0.360859,0.367232,-0.117759,-0.299684,-0.313071,0.373677,-0.312972,0.709829],[-0.457186,-0.188196,-0.01157,-0.131171,-0.086072,0.166753,-0.031168,-0.129302,-0.230949,-0.286159,-0.359672,-0.041887,0.525929,0.364703,-0.095326,-0.822846],[-0.310334,0.163359,0.012078,0.215426,-0.055032,-0.00147,-0.113394,-0.033342,0.704428,0.056117,0.171027,0.007933,-0.052882,0.310464,0.098956,-0.827784],[0.372119,-0.243886,0.900119,-0.303777,0.062043,0.04413,0.115206,0.244284,-0.345279,0.409235,-0.447673,0.450228,0.116199,-0.345721,-0.233404,0.600721],[0.523483,-0.812879,-0.79863,0.536842,0.361464,0.818226,0.263747,0.107728,-0.160798,-0.184236,-0.004464,-0.069942,0.115537,-0.157412,-0.022517,0.355658],[0.052499,-0.304849,0.646044,-0.090991,-0.000484,0.278915,-0.328762,-0.375259,-0.112317,-0.081603,-0.255311,-0.293323,-0.006166,-0.464141,0.089099,0.472817],[0.257651,0.368945,1.074817,-1.118976,-0.018976,0.034659,0.054132,-0.029541,-0.016497,-0.017457,0.008339,-0.076244,0.281185,0.022319,-0.151501,-1.101025],[0.3365,0.372872,0.702247,1.289755,0.084951,0.161793,0.072263,0.212395,-0.589715,-0.099312,0.104925,-0.206667,-0.526485,-0.257516,-0.446797,0.337755],[-0.212708,0.111509,-0.157376,0.378993,0.368839,-0.143616,0.041763,0.144756,-0.030842,0.031336,-0.431655,-0.256501,0.331934,0.155252,0.137604,0.048953],[-0.238857,0.114363,1.523466,1.138938,0.01707,0.231305,-0.231052,-0.000761,0.15792,-0.073224,0.13203,0.011482,0.095566,0.053278,-0.571782,-0.421252],[0.137699,0.092198,-0.34097,0.349834,-0.111012,0.08532,0.169049,-0.069818,-1.148267,-0.079605,-0.177779,0.351013,0.284936,0.25158,0.399462,-0.516311],[0.012761,0.810814,-0.795173,-0.174688,-0.036807,0.017871,-0.032504,-0.001664,-0.04337,0.040112,0.064485,-0.000585,-0.041928,0.546411,-0.573819,-1.18618],[0.079252,0.467578,-0.310011,-0.162577,0.022357,0.044622,-0.013692,0.113811,-0.518209,-0.773081,-0.156412,-0.324219,0.151267,0.136245,-0.046274,0.695821],[0.131672,0.107395,-1.718328,1.283453,0.003001,0.044033,0.043768,0.000634,-0.017092,-0.022025,0.064254,-0.045677,0.1054,1.057289,-0.953277,-0.249181],[-0.413549,0.232552,-0.302058,0.672834,-0.006358,0.101051,0.074104,0.04529,-0.060941,0.029719,-0.092113,0.065223,1.157235,-0.508438,0.155598,-0.107096],[0.673132,0.290971,0.478381,0.568021,-0.214353,0.103484,-0.014392,-0.073405,0.205163,-0.028051,-0.093137,0.064999,0.345592,-0.424984,-0.024074,-0.719125],[0.306265,-0.376103,-0.402345,0.474392,-0.575592,-0.024715,-0.103538,-0.151019,0.095263,-0.057244,-0.019467,-0.254899,0.036213,-0.46064,0.628381,-0.173836],[-0.305003,0.556469,-0.973817,0.745969,0.00584,-0.064802,-0.067504,-0.07177,0.053652,-0.078196,0.0364,-0.075594,-0.834036,0.515498,-0.287103,0.819981],[0.315072,0.330827,0.813774,-0.369926,0.020522,-0.216152,0.266904,-0.202872,-0.23806,0.185948,-0.086652,0.339578,-0.752556,-0.581789,-0.076846,0.083149],[-0.094023,-0.310761,-0.200791,-0.212017,0.111593,0.346803,0.624901,-0.02923,-0.000542,-0.262463,0.099763,-0.051989,-0.294996,-0.423422,0.424149,0.223437],[0.734056,0.201488,-0.564735,-0.203055,-0.026855,0.058395,-0.278842,0.12686,-0.254879,0.191475,-0.365281,0.182098,0.202735,0.196836,-0.149682,-0.162291],[0.398246,0.240694,1.000026,0.201156,0.17534,0.033739,0.230935,-0.095247,-0.327024,-0.209465,-0.099574,0.429935,0.141105,-0.05593,-0.445391,0.097746],[0.073778,-0.611628,0.449362,-0.369799,-0.378745,0.068032,0.391963,-0.145138,0.327971,0.184095,0.019836,-0.176864,-0.001888,-0.146063,-0.075055,-0.006165],[-0.353268,0.288416,-0.621282,-0.958946,0.70716,-0.673531,-0.285653,0.254999,-0.848388,-0.096149,0.131365,0.38565,0.166713,0.249515,0.389451,-0.147395],[0.476106,-0.131536,0.706618,0.631462,-0.046714,-0.010638,-0.174839,0.063293,-0.52494,0.239333,-0.122692,0.014292,0.521266,0.217787,-0.427825,0.845395],[0.99465,-0.432665,-0.039255,0.146104,0.112518,0.045904,0.054181,-0.028259,-0.177975,-0.017037,-0.020348,-0.034879,-0.167774,0.583735,-0.997479,0.408841],[-0.20911,-0.369008,0.21687,1.281857,-0.003496,-0.040466,-0.056182,0.017064,0.057733,0.011049,0.027686,0.075666,0.202898,0.226672,0.354962,0.910234],[0.139738,0.24123,-0.1596,0.648785,0.144489,-0.007328,-0.02933,0.043534,-0.506923,-0.498049,0.01593,-0.182517,0.249835,-0.505183,0.411399,-0.171803],[0.096805,0.3691,-0.586678,0.666082,0.160823,-0.037436,0.200449,-0.321943,0.01537,0.063087,-0.11407,-0.156038,-1.06671,-0.066531,0.205177,0.199507],[0.034927,-0.499177,-0.090672,-0.495931,0.373193,0.064476,0.208006,0.100286,0.34237,0.463088,0.127012,-0.272854,0.528728,0.270318,-0.126463,0.02963],[-0.109979,0.535835,-0.827736,0.023186,0.090785,0.040178,-0.135524,0.066686,0.198124,0.013315,0.168507,-0.084622,0.691888,0.563507,0.168627,-0.516874],[0.130963,-0.755055,-0.400002,-0.348126,0.451969,0.203605,0.004053,-0.021057,-0.32917,-0.207818,-0.140593,-0.073691,0.946606,0.503991,0.268849,-0.164393]],"b":[-0.016825,-0.199141,-0.44031,-0.38777,-0.492238,0.005215,-0.395812,-0.353045,0.072576,-0.382474,0.083564,-0.707024,-0.233754,-0.592839,-0.111409,-0.314963,0.178882,-0.210744,-0.342612,-0.605825,-1.340958,-0.374882,-0.244767,-0.38757,-0.437002,-0.288396,-0.387558,-0.340696,-0.222709,-0.229225,-0.190037,-0.243876,-0.130129,0.185267,-0.360749,-0.402826,0.131909,-0.138243,-0.450206,-0.154882,-0.246778,-0.836763,-0.273455,-0.200625,-0.229752,0.119422,-0.345644,-0.523734,-0.320729,-0.180346,-0.157475,0.063373,-0.816591,-0.470958,-0.081102,0.225065,-0.583103,-0.381919,-0.05214,-0.200443,-0.153538,-0.733756,0.260927,-0.257353,-0.12451,-0.046698,-0.425357,-0.162561,-0.055987,-0.413826,-0.299347,-0.338855,-0.01143,-0.101963,-0.017117,-0.037607,-0.699591,-0.065296,-0.146997,0.107941,-0.447111,-0.344863,-0.260962,-0.135757,-0.844376,-0.249815,-0.110352,-0.672773,-0.20753,-0.094415,-0.163822,0.049375,-0.293938,-0.364006,-0.303036,0.176328,-0.412116,-0.308761,0.053486,-0.232286,-0.543072,-0.24676,-0.379006,-0.096901,-0.123531,-0.182163,-0.774186,-0.541029,0.019373,-0.094797,-0.176293,-0.373142,0.126438,-0.356318,-0.404884,0.046213,0.001636,-0.084019,-0.178772,0.072158,-0.944752,-0.025672,-0.123816,-0.635657,0.527631,0.040634,-0.149453,-0.025174,0.008194,-0.409624,-0.175999,-0.32635,-0.231761,-0.61347,-0.405547,-0.377837,-0.536233,-0.554761,-0.817866,-0.342499,0.046924,-0.477422,-0.350756,-0.383446,-0.604383,-0.556714,-0.094184,-0.414194,-0.316198,-0.074236,-0.044799,-0.023464,-0.133005,-0.635672,0.009194,-0.351697,-0.390589,-0.883687,-0.701124,-0.517472,-0.343822,0.152102,0.041576,-0.30796,-0.29121,-0.477331,-0.260941,-0.45419,-0.299875,0.125905,-0.998023,0.021069,-0.202814,-0.500259,-0.306885,-0.759721,-0.344718,-0.027437,0.149305,-0.047678,0.20399,0.151478,-0.32246,-0.464012,-0.14822,-0.120253,-0.268412,-0.437642,-0.382545,-0.580073,-0.642794,-0.392722,0.000309,-0.267479,-0.665236,0.080296,-0.281906,-0.23132,-0.062748,-0.37336,-0.463824,0.068744,-0.345039,-0.929347,-0.323568,-0.283317,-0.58749,-0.132866,-0.195084,-0.247643,-0.32493,-0.482973,-0.319936,-0.436755,-0.134012,-0.66924,-0.221885,-0.043153,-0.600638,-0.342926,-0.303365,-0.441431,-0.061382,-0.922675,-0.316674,-0.259182,-0.804995,-0.179567,-0.320042,-0.013031,-0.078751,0.058983,0.041959,-0.277549,-0.058621,-0.15277,-0.483352,-0.296514,-0.177307,-0.15617,-0.539962,-0.461295,-0.02188,-0.235637,-0.272231,0.137447,-0.725134,-0.356396,-0.063348,-0.3002,-0.686866,0.43684,-0.160249,-0.380938,-0.667609,0.045928],"act":"relu"},{"w":[[-0.39701,0.154924,-1.175597,-0.072575,0.733694,0.30635,-0.515221,-0.00953,0.081348,-0.255034,0.841732,0.440667,0.155123,-0.191773,0.195812,0.059994,-0.317949,-0.202593,0.044361,-0.359329,0.644935,0.086215,0.210306,0.038646,-0.558737,-1.085477,-1.330738,-0.399037,0.823875,-0.849047,-0.709413,0.035629,-0.219699,-0.157511,0.452946,0.387592,0.27724,0.364276,-0.280614,0.335295,0.545449,0.19271,-0.446041,-0.091197,0.064519,-0.220759,-0.505662,-0.185034,-1.575917,-0.437272,-0.685927,-0.221816,0.298778,-0.331402,-0.095923,-0.060154,0.690801,-0.296586,-0.0374,-0.840442,0.414696,-2.407,0.663692,0.471378,-0.678228,-0.438318,-0.156004,0.025938,-0.17616,-0.55376,0.228532,-0.182649,-0.163711,0.052423,0.083458,0.164049,-0.217187,0.337044,0.06085,-0.064364,-0.303557,0.65232,-0.318394,0.311406,0.863333,-0.651537,-0.466703,-0.369544,0.482774,0.008243,0.582892,-0.031304,-0.363564,0.045425,0.906909,-0.025773,-0.766307,0.185383,0.159471,0.380929,0.437068,0.321284,-0.136475,-0.066775,0.390069,-0.410265,-0.799039,0.56841,0.08122,0.000986,-0.165416,0.111193,-0.076187,-0.198438,0.369695,0.098743,-0.279033,-0.470568,-0.080008,-0.13013,-0.110972,-0.080632,0.946667,-0.016299,-0.501142,0.57435,0.348376,-0.153405,0.257304,0.147794,-0.445041,0.163035,-0.077997,-0.324028,0.495573,-0.276601,0.235842,0.065324,-0.070256,-0.452485,-0.20495,-0.197168,-0.264027,-0.70796,-0.859003,0.519103,0.277437,-0.163431,-0.049258,0.340587,-0.20124,0.06449,-0.12538,-0.389912,0.158279,-0.215761,-0.601232,0.290652,-0.846787,0.061799,0.412691,0.169663,-0.357918,-0.010059,-0.380266,-0.486818,0.297013,0.796886,0.415107,-0.006453,-0.344929,0.07343,0.171262,-0.348559,0.784875,0.075003,-0.223841,-1.158661,0.062238,-0.295019,0.228379,0.583054,-0.703597,-0.050577,0.12884,0.068945,-0.389575,-1.270725,0.002486,0.679709,0.492474,-0.140118,0.05123,0.406901,-0.515694,0.085368,-0.348008,0.397145,-0.192556,0.477982,0.673011,0.18024,0.248905,-1.728656,-0.020337,-0.271643,0.055496,0.277444,0.137602,0.04576,-0.034056,-0.185089,-0.140827,0.394697,0.229309,-1.275204,-1.081997,0.582019,-0.29988,-0.116101,-0.419967,0.573161,-0.509669,0.393303,0.595501,-0.178078,-0.056469,-0.367112,0.610866,0.23866,0.103597,-0.825943,-0.387874,0.261566,0.074452,-0.415155,0.344358,0.001903,0.100828,0.07563,0.131152,-1.452203,0.066414,-0.400597,0.215957,-0.102739,0.240084,-0.41771,-0.474856,-0.464442,0.834354,-0.468066,0.212735,-0.409393,-1.204496,-0.587011],[-1.207497,-0.059634,-0.412543,0.03458,0.11302,0.552278,0.106406,0.36773,-0.084212,0.006993,-0.006238,0.164129,-0.222345,-0.97544,0.158441,-1.254298,0.235653,-0.099032,-0.579782,0.003747,-0.559757,-0.718902,-1.729957,-0.278963,-0.621962,0.718827,0.39941,-0.211428,-1.306292,0.013465,-0.053919,-0.338757,-0.215775,-0.508215,0.601638,-0.449452,0.0994,-0.362832,-0.04634,0.242957,0.098508,0.765765,-0.307691,-0.509706,0.36022,-0.668821,0.362747,-0.572786,0.20972,-0.290733,0.230021,-0.555931,-0.370593,-0.004814,-0.153564,-0.01736,-0.210498,-0.353945,-0.485372,-0.092979,0.024971,0.235743,0.297989,-0.258552,-0.064744,0.143287,-1.950878,-0.570946,0.240348,-0.648142,-0.200253,0.385923,-0.714167,-0.124473,-0.399222,0.15534,-0.108494,-0.134833,0.251925,0.249749,0.23609,0.010085,-0.420715,-0.399231,0.025951,0.303464,-0.050243,0.090438,0.054456,-0.059903,0.773671,0.357385,0.609309,-0.646448,0.112503,-1.023673,-0.085536,0.677293,0.408596,0.170478,-2.032799,0.790463,-0.93071,-0.068359,-0.052631,-0.138069,-0.395609,-0.836486,0.215783,0.01221,0.080777,-0.034948,0.940677,0.013482,-0.215186,0.026276,-0.327176,-0.064868,-0.047289,0.131914,-0.584854,-0.998363,0.270438,-1.092916,0.200661,0.016156,-1.177775,-0.692117,-0.34747,-0.390756,0.211283,-0.167036,0.085875,-0.73689,-0.781521,-0.084068,0.40348,-0.149803,0.335791,0.359597,-0.350594,-0.016646,0.173718,-0.130056,-0.770451,-0.151591,-0.185913,0.152147,-0.565976,-0.661694,0.14868,0.137218,0.449912,0.124835,0.350782,0.042465,-0.570021,0.053837,-0.105373,-0.153747,-0.598196,0.397987,-0.239192,-1.611777,0.082769,-0.420886,0.322828,0.083794,0.224885,-0.938633,0.052093,-0.912456,-0.15115,-0.145656,0.664196,-0.779652,-0.170201,0.301707,0.172039,-1.244292,-0.068508,-0.293229,0.437492,-0.065321,0.060244,0.082446,-0.555457,0.280123,0.285939,-0.435419,-0.223468,0.639325,0.114612,0.261171,-0.494115,-0.231589,0.072364,-0.310331,0.390569,-0.396942,0.564044,-0.526158,-0.128557,0.929595,-0.83159,0.256092,-0.117039,0.132344,0.058791,1.018882,0.044355,0.224157,0.173545,-0.605883,0.13797,0.552389,0.686858,0.118906,-1.920902,0.255067,0.224954,-0.1347,0.283926,-0.247233,-0.099991,0.211453,-0.260167,-0.318996,-0.024519,0.023629,-0.543671,-0.202288,0.223321,-0.435296,-0.434928,-0.633904,0.707465,0.060993,0.276648,-0.529063,-0.547077,-0.064748,0.252591,-0.1269,-0.126881,-0.326159,0.296672,0.374451,-0.227341,-0.790635,0.322765,-0.243769,-0.263989,0.087658,0.018983,-0.218236],[-0.539486,0.233104,0.408199,-0.355718,0.111837,-0.048796,0.442369,0.218625,-0.121003,0.475124,-0.223959,0.088553,0.194324,0.162146,0.019445,-0.284781,0.566907,-0.025044,0.096376,0.110574,-1.384926,0.119225,0.159175,-0.046085,0.1393,-2.474127,-0.108749,0.63195,-1.631707,-0.128586,-1.637337,-1.849785,-0.11312,-0.111474,-0.426302,0.405708,0.084978,1.357932,-0.118376,-0.744186,-0.200986,-0.017118,0.709479,-0.97509,0.043475,0.473823,0.239277,-0.671982,0.469738,-0.494649,-0.078791,-0.030879,0.18439,-0.198046,0.615083,-0.113843,0.328371,0.149745,-1.242233,0.112313,-0.167422,-0.82491,0.129866,-0.120187,-0.019366,-1.007984,-0.451859,-0.421696,0.69322,-0.137687,0.23203,0.154007,0.0816,0.063616,-0.307013,1.02176,-0.332299,0.02631,-2.161058,-0.369439,0.076294,0.249194,-0.475496,-0.706708,-0.364157,-0.239005,0.508104,0.326933,0.500504,-0.123128,-0.764231,0.164347,0.077579,-0.003327,-0.320679,0.225002,-0.354231,0.163155,0.33776,-0.190813,0.155764,0.436565,0.504514,0.237244,0.171045,-0.091339,-0.021988,0.397351,-0.886012,0.174448,1.293644,-0.438966,-0.364282,-0.116623,0.229359,0.347744,-0.084066,-0.199627,-0.592857,-0.018351,-0.806471,-0.157854,0.44076,-0.050186,-0.03442,0.167259,0.495493,-0.437827,0.201906,-1.802401,0.105758,-0.207907,-0.138302,-0.013404,0.007072,0.176417,0.094676,0.076723,-0.209992,-0.051894,-0.34181,0.06059,-0.016458,0.620565,0.468422,-0.446689,-1.372988,0.57251,-0.151289,1.035907,-0.343818,-0.27616,-0.567977,-0.281257,-0.187436,-0.2234,-0.200751,0.158788,0.193588,-0.119594,0.099353,-0.004344,-0.058708,-0.193607,0.104507,-0.040878,-0.434511,-0.151673,-0.145289,0.079075,-0.35136,0.154956,-0.006706,0.168064,0.093901,-0.309985,-0.846444,0.974592,-0.125794,0.504792,0.806024,0.097175,-0.032478,-0.366843,-0.022088,-0.061593,0.157319,-0.135664,-0.005065,-0.407529,0.112641,0.377699,0.126902,0.305812,0.304456,0.003523,-0.53891,-0.566377,-0.104472,-0.272469,-0.751766,-0.071593,0.188681,0.651151,-0.775691,-0.116279,0.102946,-0.694261,-0.497291,-0.704237,-0.014083,0.225667,-0.32357,-0.618983,0.319971,-0.51877,-0.562481,-0.147692,-0.706446,-0.386301,0.502651,-0.32688,-0.139857,0.04896,-0.627232,0.008292,0.405891,0.240385,0.116845,-0.189582,-0.207933,0.142939,-0.309982,-0.295089,0.050839,0.212396,0.30702,0.314288,-0.393393,0.130383,-0.30052,-0.131336,0.320593,-0.304849,0.061382,-0.407277,-0.749129,0.494548,0.175831,-0.442037,0.50644,0.237151,0.365165,-0.062861,-0.149853,0.19966],[-0.259199,0.024482,-1.096905,-0.536225,-0.642254,0.256719,0.475597,0.194382,-0.041844,-0.342602,-0.344825,-0.231062,-0.176181,-0.057937,-0.072489,-0.099258,0.230255,0.01622,0.396745,-0.022285,0.634339,-0.272321,0.028589,-0.232451,-0.289358,0.773759,0.237029,-0.455487,-0.577687,-0.712478,-1.099253,-0.065078,0.138281,-0.424547,-0.055021,-0.161571,-0.374616,0.276767,0.431837,0.05851,0.057013,0.019403,0.317304,0.703836,0.166303,-0.107324,-0.331751,0.05281,-1.605218,-0.468794,0.301648,0.262273,-0.128033,-0.320335,-0.10428,-0.593824,-0.242592,-0.337747,-1.262999,0.146064,0.262214,-0.946031,0.257261,0.374102,-0.155202,-0.497683,-0.630504,0.100075,-0.272271,0.160057,-0.535409,-0.406834,-0.29296,0.04997,0.162022,-0.876439,-0.482006,-0.178148,-0.019866,-0.181399,0.2406,0.161356,-0.142769,0.335011,-0.970258,-0.363588,-0.084394,-0.211468,0.033326,0.105072,0.064949,-0.093377,-0.614861,-0.606479,-0.780613,-0.025354,-0.163237,-0.501212,-0.457359,0.771892,-0.153856,-0.659884,0.955572,0.389987,-0.372642,0.154088,0.289513,-0.623641,-0.514749,0.303787,0.050836,-0.202715,-0.289791,-1.299079,0.147178,0.25688,-0.218861,-0.069634,0.192521,0.675713,-0.096802,0.220728,0.048552,-0.087536,-0.028293,0.559936,0.360731,0.164968,-0.576777,-0.348251,0.584348,0.939698,0.130076,-0.318586,0.198464,-0.330701,0.395583,-0.415184,-0.099995,-0.500006,0.18334,-0.357739,0.179336,-0.168576,-0.793331,-0.357962,-0.24409,0.153227,-0.205245,0.0483,-0.009616,0.236613,-0.280816,-3.772628,0.21089,-0.434543,0.104722,0.449423,0.116735,-0.979198,-0.12649,-0.272607,-0.904451,0.541771,-0.225936,-0.529955,-1.094,-0.40128,0.778266,0.135881,-1.586672,-0.311147,-2.512255,-0.739809,-0.141571,-0.038469,0.200817,-0.649163,0.440812,0.449087,0.159987,-0.372479,-0.326495,-0.183728,0.22636,-1.005847,0.250474,-0.099127,-0.193603,0.256965,-0.630681,0.256815,-0.112236,-0.372451,0.235912,-0.431386,0.231508,-0.266128,0.405404,0.625333,-0.267684,0.149329,0.107143,-0.32418,0.058449,-0.260638,-0.314343,-0.026404,-0.041421,0.318024,-1.126579,0.182198,-0.07045,-1.105487,0.180161,-0.380465,0.474882,0.419103,0.199358,-0.580818,0.696759,0.163149,0.240156,-0.135184,0.135956,0.131735,0.599705,0.198849,-1.263202,-0.135514,0.275701,-0.220017,0.279625,-0.657139,0.279402,-0.285726,0.183876,-0.295511,-0.284535,-0.047458,0.097695,0.038852,0.036415,0.161083,-0.118816,-0.16577,-0.077525,-0.514701,0.815805,-0.223835,0.035941,-0.146525,-0.416135,-0.016001,-0.518628,0.197729],[0.373203,-0.773727,0.05625,-0.431568,0.098591,-0.178961,-0.148544,-0.112061,0.14901,0.142509,0.327271,-0.35031,-0.009595,0.245576,0.223238,0.06199,-0.349122,-0.018235,-0.056482,0.221251,-3.973683,0.292632,0.105167,-0.520662,0.558204,-0.374575,0.187938,-0.442569,0.455677,-0.045385,-1.228824,-0.218365,-0.201267,0.213701,0.212025,-0.180065,-0.115836,-0.364114,0.228084,-0.115862,-0.318636,-0.383584,-2.965092,-0.058412,-0.131572,0.174225,0.234378,0.705282,0.247275,0.474344,0.222321,-0.006922,-0.454151,-0.334178,0.326365,0.091713,0.71504,0.234826,0.453833,0.05176,0.067351,0.076118,0.121658,0.476338,-0.287046,0.250788,0.303333,-0.14066,0.720075,-0.284001,-0.382656,-0.261763,-0.239813,0.069943,-0.45832,0.02517,0.232178,0.374479,0.463777,0.281156,-0.26125,0.048374,-0.090132,-0.082058,0.001483,0.258218,0.104772,-0.387068,-0.208381,0.151189,-0.042647,-1.253808,0.320915,-0.172874,0.059851,-0.20514,-0.306119,-0.137678,-0.364281,0.470977,-0.01139,-0.364534,0.420518,-0.166234,-0.021673,-0.077478,-0.101244,0.346401,0.122286,0.26206,-0.36116,0.391145,-0.020595,-0.157032,-0.431257,0.224103,-0.01327,-0.248972,0.223112,0.018087,-0.046076,0.273385,-0.369296,0.404401,-0.13666,-0.690076,-0.051596,-0.198927,0.255589,0.271805,0.159176,-0.310385,-0.070702,0.446659,0.63773,0.457826,0.17959,0.177826,-0.060242,0.039203,0.01716,-0.357674,-0.22832,0.208263,-0.367203,0.045114,-0.210049,-0.346026,-0.745554,-0.448608,0.546711,0.055943,0.028533,-0.428242,-0.334947,0.389206,-0.249941,0.355685,0.464774,-0.138677,0.062066,0.061349,-0.136634,-0.226604,0.161341,-0.189043,-0.44835,-0.593177,-0.156168,0.013642,-0.804955,-0.339563,-0.078342,-0.424531,0.354618,-0.074521,0.577057,0.400294,0.166003,-0.010749,-0.088291,0.408662,0.078177,0.159682,-0.800684,0.160552,-0.343551,0.321299,-0.106836,-0.053991,-0.343459,0.370946,-0.251075,-0.336027,-0.468159,-0.099566,-0.316432,0.221708,0.033842,-0.126076,0.090591,-0.07229,-0.188713,-0.017131,-0.21132,0.187072,0.248111,-0.652253,0.168409,0.144051,0.722107,-0.169996,0.251703,-0.170205,-0.170176,-0.276715,0.333607,0.870574,0.126083,0.485127,0.309292,0.112359,0.094293,-0.040281,0.151391,0.104127,-0.384348,-0.120243,-0.166629,-0.709623,0.25789,0.009673,-0.069852,0.578237,0.046838,-0.070089,-0.483719,0.211977,0.362999,-0.649573,0.066794,-0.355119,-0.165514,-0.132838,-0.125034,-0.023903,0.007496,0.099023,0.389798,0.346412,0.625667,-0.093561,-0.190732,-0.136553,0.497571,-0.203204],[0.188041,-0.069059,0.276637,-0.391518,-0.3336,-0.640971,0.010084,-0.084482,0.038006,0.106202,-0.019742,-0.506509,-0.000469,0.220521,0.2766,-0.184613,-1.884122,0.43854,-2.093524,0.211568,-1.36213,-0.027081,-1.201146,0.071511,-0.287122,0.289092,-0.150835,-0.438726,-0.396403,-0.174299,0.147295,-0.269059,0.057607,-0.278287,-0.570531,0.35453,0.373741,-0.080468,-0.063872,-0.326918,0.113242,-0.733586,0.631058,0.155394,-0.253587,0.463558,-0.18146,0.270755,0.4215,0.279229,0.023908,-2.68765,0.28961,-1.095071,-1.389704,-0.27909,-0.051813,0.027736,0.244055,-0.129748,-0.347754,0.186789,0.041672,-0.176536,0.053224,-3.706584,-0.476565,-0.038987,0.231356,-0.122465,0.198164,-0.68882,-0.670052,-0.013078,-0.171136,-0.147604,0.368579,-2.844149,0.743326,0.423385,0.235802,-0.592792,-0.868544,-0.330408,-0.256972,-0.518514,0.68314,-0.258874,-0.043572,-1.147331,-0.148931,-0.202342,-0.629763,-0.206,0.002558,-0.085529,0.7237,0.4442,-0.566483,-0.218295,0.720551,0.762252,-0.678173,-0.282951,0.145214,-0.094931,0.074889,0.0673,0.313031,-0.05487,-0.712757,-0.301041,-0.0912,0.451486,-0.185494,0.144915,-0.099501,-0.40526,0.122448,-0.405114,-0.309772,-0.169021,0.286177,-0.121168,-0.55923,0.071172,0.64975,-0.579938,-0.912073,0.385706,-1.281516,-1.040799,0.06792,0.256329,0.392571,0.057441,-0.887938,0.340416,-0.702109,-0.110347,-0.234581,-0.22485,-1.806821,-0.088244,0.006399,0.580845,-0.587131,0.184205,-1.661824,0.222067,0.265929,0.880483,-0.44334,0.614226,0.118456,0.255012,0.246069,-0.12391,0.464859,0.248909,0.068463,-0.020124,0.037064,0.199525,0.442547,0.463323,0.008584,-0.20077,0.045801,-0.849086,-0.218627,0.131798,0.056196,-0.208884,0.287544,-0.364451,0.25873,0.707968,0.289145,0.0285,0.684369,0.185138,0.425228,0.2765,-0.262934,0.128823,-0.075194,0.830306,-1.823461,-2.072283,0.240712,-0.466938,-0.091461,0.475624,0.560332,-0.312048,0.327133,-0.243039,-0.029357,-0.1414,0.043649,-0.523443,-0.205641,-0.675692,0.006461,-0.269893,-0.87099,-0.468703,-0.067535,0.604427,-0.752874,0.035021,-0.007647,-0.740205,-0.299216,0.139218,-0.11035,-0.311704,0.53423,0.330773,-0.127638,-0.497696,0.339046,0.741689,0.457835,-0.350015,-0.180761,-0.156724,0.781084,0.30274,0.294752,-0.178108,-0.119613,-0.676526,0.411232,0.088905,-0.329734,-0.20339,0.101011,0.035338,-0.255897,0.353839,0.040907,0.36086,-0.71942,-0.432211,1.346556,-0.286973,-0.32188,0.128004,0.171206,0.658064,-0.291348,-0.822178,0.048566,-1.437308],[-0.18267,-0.074658,-0.32124,0.176404,-0.29189,-0.675515,0.050432,-0.058003,-0.477551,-0.037157,0.205242,-0.124641,0.539494,0.058204,0.305901,0.290982,-0.066318,0.489961,-0.215977,0.310068,0.345423,-0.232782,0.257576,-0.362392,0.14661,-0.503635,-0.365554,0.200386,-0.768804,0.097358,-2.394807,0.066472,-0.005649,0.284145,0.003173,-0.452802,0.264491,-0.568217,-0.871621,-0.043297,0.402077,0.566213,-0.089263,0.035845,-0.26024,0.30093,-0.378628,-0.241663,-0.129266,-0.096633,-0.000641,-0.308572,-0.043326,-0.317648,-0.717908,-0.11697,0.284936,-0.428558,-0.489234,0.112631,-0.33706,0.095705,0.298977,-1.267443,0.035951,-2.166949,-0.320282,-0.453135,-0.238246,-0.419264,0.296148,0.288751,0.001267,0.516915,-0.066062,-0.000672,0.46238,0.106792,0.713297,0.260272,-0.096437,0.256132,0.342425,0.29315,-0.185156,-0.105043,0.866352,0.318429,-0.299095,-1.625724,-0.049218,0.174649,0.087127,0.259263,-0.106003,-0.030037,0.213034,0.032464,0.084441,-0.822571,0.094565,-0.456386,-0.136775,0.709868,-0.081492,-0.135279,-0.614172,-0.231165,-0.175255,0.355268,0.304058,-0.084646,0.095844,0.218307,0.157919,0.190538,-0.073232,0.020181,-0.329572,0.253108,-0.71167,-0.072615,0.479557,0.229173,0.074453,-0.444886,0.169537,0.381653,0.143391,0.12527,-0.197625,0.023608,0.344844,-0.637103,-0.629134,-0.229401,-0.150707,-0.054952,0.262908,0.920613,-0.178099,0.388579,-0.68726,-0.004176,-0.230744,-0.283206,0.276759,0.180727,-0.837762,-0.282823,-0.087784,-0.219681,-0.043174,-0.59125,-0.116164,-0.310944,-0.237482,-0.287351,-0.199473,-0.361898,0.839341,-0.15054,0.135363,-0.035511,0.327978,0.193055,-0.250149,0.261194,0.435983,-0.343303,-0.530289,-0.329371,-0.101197,0.073132,0.104004,0.040032,-0.369891,-0.177611,-0.171662,-0.389673,0.007692,0.461166,-0.106768,0.399108,-0.330911,0.17606,-0.132,-0.144869,-0.065116,0.523152,0.206277,-0.177051,0.02923,-0.131551,-0.587053,0.121159,-0.265361,-0.06605,0.006442,0.714159,0.707097,-0.54288,-1.076916,0.675307,-0.338642,-0.166498,0.002982,-0.033712,-0.369955,-0.032033,0.369751,0.009352,0.244458,0.850624,0.301499,-0.144293,0.085025,0.059486,0.378632,0.085991,-0.318853,0.510075,-0.13576,0.395339,-0.095811,-0.053409,-0.803862,-0.156704,0.170697,0.254013,0.281795,-0.293769,0.45538,0.63631,0.29981,-0.005205,0.44885,-0.401899,-0.156371,-0.428348,-0.164257,0.021754,0.061523,-0.465715,0.271984,-0.641415,0.281716,0.569905,-0.08713,-0.387236,1.094532,-0.437322,0.212242,-0.614843,-0.24739,-0.021281],[0.46797,0.165159,-1.006956,0.567146,-0.022245,-0.006936,-0.643958,-0.060077,-0.351839,0.143812,0.465503,0.120586,0.572784,-0.410954,-0.077455,0.286927,-0.174748,-0.084134,-0.062728,0.5961,-0.471107,0.142219,-0.588364,0.008331,0.202872,0.010138,0.343671,-0.184081,-0.355957,-0.118567,0.520122,0.195192,0.464332,0.153734,-0.028906,-0.98344,0.793969,-0.135124,-0.228301,-0.273815,0.244422,-0.138317,-0.978925,-0.344427,-1.680447,0.437308,0.305583,0.991643,0.106779,0.103854,0.096617,-0.088198,-0.11673,0.153885,0.384435,0.062935,0.252116,0.158028,-0.032989,0.147181,-0.66184,-0.176545,-0.047867,0.448231,-0.424719,0.48453,-2.57267,-0.294579,-0.744754,0.311396,0.265788,0.31931,-0.029496,-0.361451,0.159798,-0.399736,-0.21496,-0.041825,0.819268,0.096935,-0.03587,0.028396,-0.265841,-0.659443,0.528518,-0.109079,0.045431,-0.584687,0.31825,-0.112209,-0.267496,-1.081113,0.164417,-0.206366,-0.080463,-0.316087,0.33536,-0.021111,-2.996778,-0.69622,0.318276,0.548425,-0.152263,0.318695,0.169276,-0.172782,0.69024,0.006083,0.265478,-0.163731,-0.858579,-0.390881,-0.666715,0.203971,-0.456182,0.076117,0.401637,-0.266498,0.382918,-0.641105,-0.103169,-0.98283,0.785689,0.32435,-0.599319,-0.096745,1.228073,-0.369589,-0.102597,1.063294,0.343828,0.364217,-0.29329,-0.446346,0.531124,0.029099,-0.322495,-0.260738,0.382596,0.016437,-0.70434,-0.073053,-0.559308,-0.017844,0.102078,0.378389,1.627467,0.442138,0.605745,-0.359987,0.005425,-0.449892,0.39512,0.540364,-0.393213,-0.054055,0.094942,0.826232,-0.446745,-0.12901,-1.024242,-0.164849,-0.149211,0.190266,-0.133681,0.682991,-0.242145,0.122062,-0.218591,0.143834,0.908204,0.292925,-0.688409,-0.582941,0.260322,-0.017838,0.533105,-0.14643,0.688943,-0.013204,0.047712,-0.009886,0.105601,0.141154,-0.045377,-0.086779,-0.153888,-0.555927,0.094558,-1.506425,0.145471,-0.287054,-0.259635,-0.513025,0.224395,-0.526648,0.004133,-0.146503,0.354189,-0.461089,0.458287,-0.688467,-0.202088,0.431738,-0.112591,0.372073,0.160375,-1.071109,-0.269621,-0.856903,-0.829901,-0.441233,0.080836,0.610206,0.45713,0.363833,-0.145259,-0.097444,0.549786,0.432183,-0.011574,-0.040223,-0.828224,-0.455306,-0.140102,-1.364411,-0.102833,-0.227111,-0.031947,0.01737,-1.633831,0.574255,-0.401685,0.008803,-0.004179,-0.116291,-0.11727,-0.097489,-0.317834,-0.303855,-0.57915,0.176316,0.29256,0.596886,-0.546923,0.425055,-0.071958,-0.988595,0.303005,0.090949,-0.164778,-0.365659,0.120546,-0.221455,-0.077244,-0.220296],[-0.001402,0.023644,-0.030895,-0.010836,-0.055401,-0.008566,0.037976,-0.059321,-0.019223,-0.058156,-0.065932,-0.017336,0.057288,-0.073503,-0.006209,-0.053943,-0.066589,0.010446,0.011581,0.012897,-0.022108,0.046186,0.038471,-0.042245,0.002113,0.030543,0.018412,-0.002577,0.016585,-0.044944,-0.043257,-0.04368,-0.046033,0.056074,0.038481,-0.063658,-0.032257,0.02198,-0.011454,-0.029789,0.039235,0.021962,-0.012628,-0.049461,0.011348,0.047102,0.023058,-0.011362,-0.016236,-0.042945,0.033559,-0.006196,-0.068963,-0.002023,0.031118,0.008224,-0.022856,-0.032461,-0.04224,-0.011419,-0.042854,0.018399,0.006612,-0.057866,-0.041985,-0.034777,-0.014549,0.035848,0.020685,-0.037642,0.026201,-0.062814,0.035018,-0.054169,-0.077854,-0.021657,-0.075267,-0.04003,0.001275,-0.065099,-0.06087,-0.040744,-0.072729,-0.011097,-0.013837,-0.005018,0.024413,-0.062306,0.002282,-0.072378,-0.058752,-0.030166,-0.021904,0.003175,-0.023535,-0.016496,0.033444,-0.023122,0.034744,0.021934,-0.051398,0.027319,0.054997,-0.013721,-0.017465,-0.060805,-0.031532,0.051326,-0.042136,-0.045149,-0.052778,-0.058277,-0.060834,-0.072676,-0.017192,0.040853,-0.051869,0.027881,0.035299,-0.010182,-0.057705,0.006091,-0.012248,0.019193,0.014181,-0.025242,-0.056766,-0.054174,-0.049499,-0.054091,-0.011563,-0.022183,-0.049562,0.024585,-0.016855,-0.039641,-0.028506,-0.042572,-0.071009,-0.01199,0.011605,-0.040654,-0.009282,0.033837,0.019985,-0.021151,-0.019409,-0.016799,0.012867,0.030836,0.010077,-0.023953,-0.027687,0.039043,0.038866,-0.009575,-0.028605,-0.040575,0.015096,-0.007178,-0.077682,-0.025948,0.002252,-0.040336,0.042382,-0.050659,-0.063384,0.013286,-0.05195,0.034401,0.019001,0.038057,0.014123,0.000581,-0.02127,-0.0529,-0.001754,-0.03193,0.044456,-0.00368,0.020865,-0.001309,0.003665,0.026067,-0.025979,0.020403,-0.066657,-0.024277,-0.063773,-0.081165,-0.05578,0.013225,-0.076859,-0.026088,0.035825,-0.077393,-0.009109,-0.065255,0.033145,0.034553,0.004665,0.006219,-0.062862,0.038551,-0.075629,0.028785,0.015967,-0.061761,-0.026529,0.052704,-0.020083,0.019123,-0.054905,-0.00695,0.009792,-0.044255,-0.016185,-0.00106,-0.011921,-0.008515,-0.041945,0.020811,-0.045131,0.047437,0.004224,-0.042073,-0.070591,-0.002672,-0.039555,-0.035313,-0.004311,0.030076,0.021265,-0.032689,-0.080171,0.035366,-0.048782,-0.0191,-0.028542,-0.026354,-0.021457,-0.051136,-0.031768,-0.068845,-0.016576,-0.05908,0.01256,-0.089375,0.053021,-0.111528,-0.019966,0.006567,0.008313,0.018283,0.05005,0.009408],[-0.003652,0.237412,-0.401968,0.138844,0.237961,0.003715,-0.226484,0.00946,0.007349,-0.202824,0.731415,-0.143944,-0.572158,0.048292,0.108338,-0.083263,-0.068708,-0.85937,0.550037,0.9964,-0.667694,-0.24689,0.068801,-0.051732,0.36858,0.270779,0.044603,0.30843,-0.035635,0.269739,0.402946,-1.096133,-0.039764,-0.122394,-0.236389,-0.082393,-0.07696,0.261679,0.501465,1.273814,0.031817,0.054206,-0.240301,0.292994,0.58837,0.46073,0.468449,-0.243401,-0.150598,0.122374,-0.735022,0.210965,0.952808,-0.43163,0.076725,-1.520554,-0.280485,0.471045,0.234299,-0.238656,0.307493,0.408855,-0.057275,-0.690066,-0.036535,-0.126146,0.190045,-0.821963,-0.658475,0.02307,0.073549,0.08245,-0.598234,-0.456655,0.153186,-0.226537,-1.601621,-1.135242,0.079627,-0.168805,-1.631137,0.657838,-0.361093,0.476533,-0.477418,0.270328,0.382395,-0.65312,0.119017,-0.452561,-0.47442,-0.360783,-0.040591,-0.006588,2.168274,-0.177124,-0.107838,0.341241,0.026176,0.129458,-0.496211,0.045504,-0.247043,0.116309,-0.813614,0.333652,0.37311,-0.19214,0.603798,-0.412501,-0.256557,0.270606,0.390753,0.26753,-1.100988,-0.876537,-0.456153,0.210149,0.407483,-0.420379,-2.093384,0.392237,0.493237,-0.193165,-0.172338,0.028609,-0.300278,0.221641,0.167726,0.010866,0.236037,0.287366,0.103897,0.016558,-0.456321,-0.302487,0.179932,0.000209,-0.403337,0.033479,-0.015351,-0.08594,0.004658,-0.903296,0.252223,-0.51156,-0.072681,0.543768,1.111994,0.396194,-0.576806,0.338843,0.063066,-0.066057,-0.224472,-0.473728,0.031637,0.029376,0.138288,-0.770758,0.423837,-0.1082,-0.71104,0.749027,0.424935,0.01471,-0.088596,0.118023,0.024505,0.651109,0.493247,-0.154632,0.014427,-0.716434,-0.267386,-1.732217,0.290095,-0.745674,-0.096172,0.779584,-0.277352,0.01482,-0.066354,1.069059,-0.574633,0.175161,-0.012284,0.492027,-0.854334,-0.254686,-1.063647,-0.213377,-0.595159,0.104882,0.005361,0.487049,-0.422355,0.403319,0.383644,-0.211903,-0.832428,0.214925,-0.046421,-1.025649,-0.262101,0.045578,-0.006672,0.808003,-0.495534,-0.489101,0.249508,-0.396529,-0.215656,-0.828124,-0.323736,-0.425834,-0.311295,-0.078138,0.008644,-0.253885,0.013824,-0.037143,-0.033412,0.130472,-0.100016,-0.204925,-0.117811,-0.337001,0.432305,-0.686007,-0.370755,-0.733985,0.189766,-0.049346,0.385068,-0.351052,-0.034673,-0.876999,-0.84355,-0.000725,0.227373,-0.585118,-1.118549,0.260081,-0.012727,0.181977,0.019982,0.376854,-0.207921,0.086064,-1.489228,-0.450384,-0.638418,-0.200611,-0.041641,-0.181352],[-0.348274,-0.261487,0.411022,-0.920583,-0.765114,0.705278,0.115387,0.519979,-1.110746,0.148434,0.109424,-0.341278,0.190921,-0.912255,0.107875,-0.910037,0.407772,-0.072154,-0.581078,0.147039,-0.026202,0.623226,-0.875131,-0.987534,-0.25479,-0.247595,-0.194372,-0.632666,-0.630445,0.500458,-2.960227,-0.337783,-2.218935,0.189635,0.095308,-1.669015,-0.091436,0.384326,-0.426493,0.226143,-0.745002,0.54918,-2.055806,-0.024975,-0.599725,-0.520969,-1.013903,-1.42646,0.073667,-0.422151,0.277504,-0.044592,0.019387,-0.283584,-0.415985,-0.142633,0.278093,-0.155379,-0.013878,0.628694,-0.321338,-0.48035,-0.23866,0.398057,0.190705,0.123646,0.26952,-0.188684,-0.205492,-0.571997,0.263551,-0.60772,-0.331617,-0.08142,0.119996,-0.113934,0.280287,-0.185105,0.496181,0.26908,0.170001,-0.350258,-0.769156,-0.022953,-0.029731,-1.256848,0.464683,-0.080055,0.36125,0.089849,-0.586361,-0.086798,-1.498326,0.727416,0.178074,0.6503,-0.151689,0.299084,-2.673285,-0.718061,-0.508651,-0.495831,0.346359,0.518491,0.135806,-0.116166,-0.623097,-0.193525,-0.20316,0.334708,-0.897754,-0.699992,0.19796,-1.109177,0.148739,-0.263207,-1.119128,0.017824,-0.78801,-0.794776,0.586582,0.321878,-0.618547,0.507469,0.263636,-0.417012,-0.032064,-0.424863,-0.489433,-1.047383,-0.358035,0.215372,0.1461,-0.230471,0.010792,0.02827,-0.679243,0.128872,0.036819,-0.557518,0.280127,-0.065444,-0.575208,-0.117374,-1.419106,-0.434618,-0.510789,-0.006896,-2.646045,-0.184475,-0.224425,0.438789,-0.038343,-0.388614,-0.336608,-0.812128,0.138163,-1.457556,-0.279051,-0.414597,0.506039,-0.850076,-0.327543,0.090508,-1.22269,-0.215178,-1.12265,-1.697432,0.229291,-1.291435,-0.144368,0.003364,0.219087,0.094592,-0.12726,0.287712,0.286395,-0.0444,-0.551048,0.122131,0.473236,-0.771995,-0.315186,-0.215178,0.257503,-0.138699,-0.407026,0.663421,-0.327484,-0.268541,-0.66971,-0.020324,0.332357,-0.973252,-0.030777,-0.440788,-0.537774,-1.212954,0.195527,-0.028,0.061495,-0.088651,0.257219,-1.3767,0.390125,-0.218477,0.3982,0.098543,-0.007556,0.298146,-0.385971,-0.025979,-0.369275,-0.302463,0.265542,-0.823342,-0.483631,-0.120395,0.341046,-0.300417,-0.879831,-0.183897,-0.496919,0.172138,0.183347,-0.023134,0.161748,-0.230882,-1.012871,0.159107,-1.465227,0.280706,-0.246287,0.375135,1.046825,0.165488,-0.424798,-0.016144,-0.717664,0.073996,-0.43405,0.183071,-1.279275,-0.681704,-1.187134,-0.372897,0.856129,-0.1196,-0.711632,0.024632,0.358308,0.163914,-0.05943,0.117433,0.085738,0.070285],[-0.459964,0.003148,-2.18528,0.16102,-0.054377,0.377007,-0.641126,-0.291706,-0.183439,-0.698607,-0.029991,-1.05985,-0.050273,-0.170002,0.518838,-0.065284,-0.076081,0.515203,-0.610116,-0.07299,-0.107782,0.254579,-0.138702,-0.38668,-0.165309,0.263103,0.009933,-0.162529,-0.212443,0.414241,-0.804962,0.470466,0.492257,-1.40937,0.08114,-1.286064,-0.107564,0.267232,0.186555,0.711718,0.087639,-0.39625,0.415616,0.158338,0.308948,-0.672986,0.244372,0.123374,0.693249,-0.447792,0.561439,0.163082,0.364912,-0.025652,0.390715,-0.425767,-0.343314,0.103569,-1.412201,-1.459525,-0.03123,0.513314,-0.384351,0.098879,-1.040354,-0.470693,-0.158583,-0.795825,-0.097082,0.357848,-0.040045,0.037734,-0.356886,-0.540238,-0.1282,1.166666,0.362964,0.260798,-0.135569,-0.360466,0.218042,-0.8002,0.225102,-0.753782,0.822295,0.103543,0.402424,-0.057324,-0.513288,-0.083886,-0.563719,0.181848,0.300354,-0.470427,-1.067701,-0.293009,-0.030255,-0.026208,-0.591234,0.013427,0.336322,-0.197057,-0.407889,0.220978,-0.773277,0.021392,0.373833,-0.849583,-0.598059,-0.269428,0.121435,0.091195,-0.108773,-0.83369,-0.290583,-0.237125,0.09469,0.049537,-0.716771,-0.062945,0.100652,-0.038892,-0.158468,-0.357666,0.297979,-0.093979,0.497975,0.868361,-0.247505,-0.678521,-0.156473,0.090742,-0.452586,0.248057,0.005318,0.154029,0.275362,0.122177,0.249191,0.580639,0.182591,-0.519827,0.100509,0.156167,1.005161,0.487379,-0.071581,0.027853,0.424833,-1.014494,-0.127823,-0.408573,0.56216,-0.140166,0.110602,-0.900606,-1.411207,-0.177242,-0.378866,-0.529594,0.281617,-0.139774,-0.015837,-0.255849,0.421406,-0.028056,-0.274569,-0.052146,-0.746803,-0.089998,-0.789241,-0.212655,0.531119,-0.19695,0.152142,-0.620781,0.08178,0.088244,-0.357477,0.35097,0.066685,0.046688,0.084595,0.115611,0.527754,-0.031127,0.52993,0.01123,0.190032,-0.364172,-0.800327,0.129783,0.103674,0.075497,0.025278,-0.45424,-0.007136,0.680574,0.053866,0.001384,-0.169528,-0.148085,-0.683765,0.061534,-0.262548,0.046116,0.405703,-0.245702,0.240347,0.210736,-0.538897,0.320989,0.153563,-0.026391,-0.245502,0.417538,0.857195,0.001311,-0.781803,0.203779,-0.402791,0.634555,-0.995672,0.180771,0.37116,-0.157899,0.096612,-0.294683,-0.223028,-0.198511,0.671929,-0.650559,0.471158,0.280408,-0.331096,-0.084772,0.945433,-0.653358,-0.184039,-0.618768,0.640107,0.496359,-0.314918,-0.299242,-0.674933,0.086532,-0.227206,0.517679,-0.450623,-0.33783,0.335578,-0.453292,-0.000894,-0.33105,-0.627577,0.126888],[0.051361,0.403435,0.147084,0.272909,-0.156876,-0.151414,-0.13065,-0.511859,-2.779259,-0.776328,-0.097549,0.208723,-0.01285,0.175182,0.069645,0.014326,0.273076,0.11779,0.432585,0.453666,-0.320112,-0.031357,-0.461555,-1.324456,-0.562244,0.249587,0.050867,0.340232,0.059011,0.795117,-0.410436,-0.026447,0.95788,-0.394292,0.042434,0.261019,0.108535,0.114106,-0.216688,0.493833,-0.454979,0.182422,-0.454281,-0.757419,-0.115636,0.064329,0.390456,0.612755,-0.245846,-0.311261,-0.177732,-0.26572,0.046479,-0.116363,-0.395479,-0.111535,0.290029,0.116055,-0.318488,-0.325658,-0.333892,-0.703932,0.219566,-0.790892,0.319025,-0.121468,-0.223181,0.167668,0.947042,-0.278126,-0.475492,-0.105594,-0.03114,-0.121135,0.245602,0.025176,0.417309,-0.116087,-1.179632,-0.092063,0.612058,0.190148,-0.255507,-0.271163,-0.496553,-0.964261,-0.514023,0.490277,-0.451938,0.041453,0.467008,-0.653265,0.26868,-1.223793,-0.332327,-0.529492,-1.120693,-0.145427,-0.552562,0.252837,-0.579864,0.377695,-0.448278,-0.810524,-0.029558,0.144262,-1.220925,0.52308,0.009527,-0.178946,0.26511,-0.266162,-0.341087,-0.282808,0.072163,-0.547931,0.528663,-0.392301,-0.088904,0.610551,-0.664486,-0.031257,-0.633413,0.297339,0.041722,-0.040091,0.210533,-0.089043,-1.042642,-0.93788,0.497018,-1.074735,-0.538116,-0.113955,-0.024166,0.268067,0.347761,0.278052,0.116137,0.345196,-0.32432,0.242134,0.269123,-0.248502,-0.082995,-0.459716,-0.115025,-0.325776,-0.989807,-0.687654,0.585098,-1.532527,-1.07604,-1.068761,-0.022349,-1.1031,-0.280916,-0.592337,0.012914,0.001822,0.12826,0.141152,0.320573,-0.351556,0.438779,-0.311106,-0.669488,0.035761,-0.936724,-0.342739,-0.342181,-0.354631,-0.083856,-0.187527,0.059963,0.703563,0.178074,-0.015391,-0.568225,0.180359,-0.434033,0.063024,-0.2136,-0.018693,0.250821,-0.499474,-0.513136,-1.014584,-0.824099,1.416988,-0.104775,-0.33683,0.022007,-0.446678,0.283573,0.024604,-1.61533,-0.296837,-0.261268,0.189004,0.332599,-0.394517,0.479297,0.098591,-0.433038,0.602439,-0.117991,-0.093471,0.409594,0.124299,-0.087175,0.11519,-1.419626,-0.439689,-0.021548,-0.148203,-0.218677,0.281768,0.231841,-0.000451,-0.54855,0.302508,0.079854,0.546358,0.422667,0.437048,0.684401,0.142388,-0.227989,-0.030675,-0.187125,0.299177,0.652957,-0.266857,-0.000668,-0.159917,-0.31558,-0.4117,0.08213,-0.028172,0.384283,0.186459,0.173356,0.348521,-0.822889,0.336362,0.060823,0.405254,-0.197906,-0.164798,0.242745,0.210225,-0.42573,-0.213893,0.107999,-0.439241],[-0.071192,0.59911,0.197316,0.532398,-0.085318,-0.298252,-0.016439,0.26959,-0.363624,-0.053697,0.384344,0.465795,-0.799593,-0.432513,-0.232227,-0.506275,0.086115,-1.559445,-0.040235,-0.093471,0.313504,-0.208806,0.535784,-0.016855,0.059563,-0.285718,-0.699013,0.067561,0.213479,-0.085684,0.27518,0.545971,-0.104922,-0.171368,0.173748,-0.250393,0.097194,0.212801,-0.176507,0.289152,0.215866,0.021062,0.440653,0.252443,0.287356,0.545598,-0.138286,0.033511,-0.068691,0.015143,-0.292235,-0.463804,0.471342,-0.678671,-0.202358,-0.592119,-0.304528,0.46814,-0.028328,-0.783866,0.180094,0.481961,0.118406,-0.598246,0.07351,0.251484,0.274066,-0.53678,-0.006299,0.284113,0.014635,0.995736,0.428979,-0.587651,-0.307996,-0.189893,-0.524999,-0.144418,-0.595574,-0.196,0.035275,0.626904,-0.362944,-0.07942,-0.17629,0.579359,0.073163,-0.983316,0.053695,-0.253584,-0.014232,0.019579,-0.315602,-0.083202,0.083705,-0.970024,0.37702,-0.41204,-0.146064,0.117286,0.38067,-0.047351,0.189468,-0.101852,-0.153493,-0.423229,0.328288,0.061255,0.091644,-0.33653,0.052464,-0.390752,-0.910922,0.75973,-0.576836,-0.479481,-0.340142,-0.53955,-0.269257,0.226954,0.303431,-2.450518,-0.983122,-0.354514,0.101116,0.292549,0.209438,-0.065486,0.058561,-0.167935,-0.19936,-1.034966,-0.542169,0.157383,-0.176547,-0.196439,1.546884,-0.027861,1.012188,0.253129,-0.342345,0.567213,-0.094202,-0.612461,0.513018,0.649109,0.270679,-0.439334,0.213522,0.033516,-0.012644,0.168801,0.240112,0.454991,-1.134899,0.029638,0.285521,1.618254,0.530578,-0.5683,-0.005671,-1.868935,-0.308493,-0.602032,-0.007221,0.368389,0.07682,0.940625,-0.431483,0.13495,0.511468,-0.441917,0.084394,-2.228851,0.124982,0.240424,-0.079715,0.279683,-0.302211,0.46579,-0.178828,-0.01659,-0.541887,-0.353403,-0.407853,-0.058089,0.296293,-0.572174,-0.929284,1.202167,-0.40363,0.087548,0.619358,0.446818,-0.315401,-0.445153,0.045786,-0.320636,-0.586201,-0.012274,0.043404,-0.262328,-0.731568,-1.010311,-0.046689,-3.040226,0.232471,-0.143825,0.441932,0.439345,0.068961,-0.827038,0.365786,0.274167,0.431445,0.110965,0.394767,0.253445,0.227107,0.068545,-0.104124,-0.707154,-0.296106,-0.29948,0.16511,-0.177652,-1.231222,-0.191948,-0.405393,0.048313,-0.048782,0.115214,-0.194885,-0.390195,-0.370406,-0.416419,-0.060055,-3.036278,-0.588909,0.438812,0.30491,-1.3256,-0.514949,0.088205,-0.171987,-0.046477,-0.069579,0.377863,-0.044223,-2.311764,0.31922,0.14472,1.039487,0.154972,-0.326015,-0.393354],[-0.398472,0.064258,0.319629,-0.753606,-0.658167,-0.291617,-0.175804,0.15243,-0.633357,0.494731,-0.551163,0.209862,0.307216,0.255338,0.365294,-0.233177,0.718075,0.202171,-0.823653,-0.186831,0.125122,-0.145782,0.039069,-0.094013,-0.499241,-0.226617,0.270804,-0.745606,-0.577367,-0.988242,-1.551079,0.554529,0.340592,0.184082,0.442206,-1.806272,0.076748,-0.108487,-0.54547,-0.307613,0.027412,0.154758,-1.989697,-0.839176,-0.294156,-0.203671,0.248008,-0.492379,0.047931,0.088949,-0.213882,-0.644398,-0.837853,-1.348927,-0.070728,-0.044948,0.148431,0.509213,-0.909735,-0.29054,0.256255,-0.862296,-0.732573,0.098371,-0.654746,-1.50541,0.166851,0.000683,-1.189024,-0.134793,0.50653,-0.637561,0.234339,-0.347456,0.49747,-1.267672,0.459523,0.064133,0.351684,-0.29766,-0.101612,-0.212103,0.185724,0.545425,-0.04874,0.64999,0.038522,0.116379,-1.030688,-0.453591,0.001555,-0.549104,-0.506536,-0.176973,-0.161135,0.273831,-0.670614,-0.203956,-2.341327,-1.887814,0.159073,0.224512,0.269354,0.522717,-0.272775,-1.212727,-0.2301,-0.111084,0.00087,0.207858,-0.752261,-0.116543,-0.006169,-1.80584,0.189473,-0.214307,-0.004754,0.058042,-0.30461,-0.028258,-1.045141,0.364873,-0.364016,-0.207215,0.145945,0.112082,-0.037083,-0.465735,-0.799528,-0.856676,0.35029,0.016595,-0.184703,1.32894,0.199622,-0.373918,-0.953995,-0.700695,-0.672194,-0.78305,-0.302869,0.413389,-0.675308,-0.097267,-0.47176,0.073772,-0.340403,-0.005981,-0.433153,-0.041651,0.16491,0.800571,-0.185933,0.21807,0.015625,-0.34949,-0.214118,0.229052,0.227324,0.283139,-0.116049,0.625448,0.163514,0.204414,0.007278,-0.352696,0.1248,0.062956,0.467458,-0.426745,-0.438915,0.147822,0.075873,0.207684,-0.64514,-0.368115,-0.211607,-0.109666,0.113455,0.5736,-0.20637,-0.261602,0.405545,-0.782824,-0.133483,0.215211,-0.385326,0.829888,-1.437049,0.111376,-1.185505,-0.71253,-0.252552,-0.637169,0.321607,0.33094,-0.738313,0.92728,0.082222,-0.85401,0.517569,0.37112,0.016749,-0.539979,-0.173516,-2.231387,0.991197,-0.199129,-0.701887,-0.20743,-0.409678,-0.134863,-0.133493,0.36559,-0.294877,-0.042119,-0.481028,-0.651622,0.638692,0.253616,-0.770456,0.666139,-0.515551,-0.471282,0.091504,0.322044,0.298416,-0.829154,0.420584,0.273121,-0.280411,0.289077,-0.335888,-0.24262,0.067841,0.068543,0.351778,0.137289,-1.307214,-0.714826,0.375847,0.164342,-0.238932,-0.232834,-0.321704,0.136985,-0.02418,-0.187178,-0.174316,0.118027,0.273836,-0.079941,-0.304326,-0.255474,-0.617098,-0.123511],[0.257005,-0.582724,0.322381,0.180014,0.286824,0.069744,0.072325,-0.220674,-0.041709,0.623951,0.178303,-0.067766,0.246541,-1.304857,-0.0167,0.16067,-0.699776,0.347231,-0.607094,0.387124,0.212864,0.007548,0.166915,0.201799,0.199056,-1.428205,0.093176,0.080227,0.040232,-0.05715,0.076079,-1.48558,-0.400373,0.554679,-1.473953,-0.217989,-0.286073,-0.110089,-0.323229,0.244788,0.515247,-1.955207,0.293003,-0.125071,-0.276674,0.081492,-0.267223,0.019289,-0.001653,0.302759,0.165319,-0.262781,0.217908,-0.095804,-0.215035,-0.475645,-0.235133,0.154888,-0.127594,0.152286,-0.180989,1.211391,-0.26396,-1.052961,0.540544,0.065608,-0.351631,-0.573141,-0.2229,0.441282,-0.039455,0.460234,0.718141,0.04663,0.081795,0.901719,-1.974132,0.557868,-0.074323,-0.208866,-0.733376,0.289946,-0.791635,-0.298766,-1.978273,-0.07311,-0.713176,0.299306,0.292776,-0.41982,-0.203383,0.338733,0.608776,0.556736,-0.394532,-0.251346,-0.713404,-0.036948,0.143518,-0.747334,-0.318352,-0.416117,-0.285838,0.033293,0.610556,0.240931,0.510997,0.300637,0.013331,-0.227007,0.43232,0.140156,-0.292649,0.060059,-0.056475,-0.466342,-0.221068,-0.66903,0.018441,-0.366546,-0.174366,-0.26122,0.310843,0.911898,-0.406533,-0.037739,0.224095,-0.155908,0.658498,-0.009927,0.233524,0.450254,0.120271,0.088211,-0.003383,-0.392642,0.351242,-0.117118,0.21248,0.320638,-0.226872,-0.625228,0.289647,0.03129,0.66061,-0.567651,0.187773,0.376948,-0.122418,0.019183,0.314981,0.277419,-0.193689,0.102846,-0.873369,-0.077138,0.564528,0.088437,0.214794,-0.482349,-0.947696,-0.151759,-0.369286,-1.301261,0.401278,0.062965,-0.317354,-0.122938,0.477735,0.318017,-0.957276,-0.499157,-0.928081,-2.110033,0.225161,-1.036865,0.293583,-0.192867,-0.552292,0.192264,0.077916,-0.186436,-0.675014,0.263638,-0.701602,0.692013,-0.436921,-0.821436,-0.12501,-0.016606,-0.222634,0.428585,-0.04779,0.14067,-0.743966,0.176281,0.433963,-0.640965,0.561825,0.176083,0.204394,-0.546166,0.144689,-0.113298,0.022686,-0.176435,0.169578,-1.744902,0.02623,0.088375,0.030766,0.021776,0.138101,-0.358432,-0.161973,-0.023318,-1.312942,-0.725406,-0.055637,0.210139,-0.084498,-1.222456,0.208814,-0.675236,0.557936,-0.507333,-0.065373,-0.22023,-0.13233,0.05727,-0.0911,0.575914,0.246443,0.137199,-0.142062,-0.317955,0.719764,0.211752,0.001042,-0.106333,-0.171163,-0.642361,0.060575,-0.69984,0.101333,-0.089583,-0.387508,0.467819,-0.139405,0.361166,-0.60064,-0.369308,0.517439,-0.029147,0.151806,-1.22669],[0.505695,0.127027,0.160813,-0.100127,-0.174054,0.251878,0.089477,-0.815088,0.320511,0.180254,-0.249152,-0.204874,0.152763,-1.308349,-0.208807,-0.670941,-0.091144,0.309848,-1.090237,-1.723738,-1.491508,0.488904,-0.066819,0.01542,0.68098,0.261041,0.382477,-0.303249,0.282969,0.516537,0.106592,0.156035,0.105173,0.069839,0.436043,0.72919,0.212105,0.408721,-0.394663,-0.716429,0.284132,-0.22295,0.28131,0.107883,-1.448973,0.294121,-1.196451,-0.710391,-0.58794,-0.528548,-0.465488,0.062232,0.031592,0.468721,-0.205073,-0.023856,-0.160675,-0.543355,0.094603,-0.327281,-0.352825,0.313986,-0.264408,0.607324,-0.236305,-0.483942,0.400882,-0.949569,0.066643,-0.266444,0.195868,0.314096,0.373317,0.633068,-0.577649,-0.578197,-0.860231,0.331756,0.396199,-0.068927,-0.433825,0.07706,-0.522118,-0.852916,-0.030856,0.351504,0.229059,-1.052162,1.151655,0.247508,0.297724,-0.028669,0.279098,0.100401,0.032065,-0.210724,0.395903,0.302698,0.209265,-0.266719,-1.28191,-0.017082,-0.0074,0.484364,-0.410861,-0.63105,-0.738177,0.521004,0.272447,0.239987,0.271904,0.132836,0.121592,-0.3442,-0.298819,0.232913,-0.129217,-0.254233,0.14135,0.033523,-0.400257,0.333245,-0.401534,0.047708,-0.943165,0.318543,-0.645125,-0.685007,-0.138162,-0.044009,-0.308836,0.246381,-0.212884,0.239185,-1.181994,-0.195186,-1.49783,-0.124378,-0.045293,0.183861,-0.124678,0.03825,-0.5657,-0.059982,0.340737,0.745625,0.655897,-0.194257,-0.11506,-0.213918,0.137772,0.333095,0.210957,-0.201578,0.151032,0.151616,-0.820222,-0.428002,-0.424937,0.156179,0.182124,-0.829664,0.171088,-0.154754,-0.349084,-0.097033,-0.310761,-0.052801,0.751775,0.218651,0.052313,0.100926,-0.102868,-0.214194,0.564313,-0.397262,-0.069682,0.238129,-0.138144,-0.002209,0.063341,0.115237,-0.190598,0.305023,0.289099,-0.374462,-0.683988,-0.751188,0.157416,-1.627024,-0.285529,0.118116,-1.185834,-0.085421,-0.200322,-0.094459,-0.369026,-0.003304,0.125416,-0.346701,0.186814,0.069394,-0.883273,0.996523,-0.247024,0.030402,-1.311948,0.217421,-0.158576,0.266517,-0.256571,0.256219,0.157825,0.103501,-0.563761,0.089141,-0.521681,-0.816028,0.523061,0.3786,0.29458,-0.299176,-0.401955,-0.081151,-0.33227,-0.467333,0.004959,-0.532842,-0.151742,0.212011,-0.705791,-0.138179,-0.635758,0.18792,-0.347665,0.042466,-0.847513,0.242194,-0.368366,-0.38289,-0.053438,-0.224229,0.219265,-0.857102,0.409337,-0.977108,0.21527,0.122494,0.043686,0.270165,0.115573,0.48732,-0.395639,0.012843,-0.398824,0.014431],[-0.200968,0.104636,0.326314,0.006758,-0.319234,-0.426898,0.026943,-0.546725,-0.178851,-0.095115,-1.742631,0.074038,-0.329778,-0.413701,-0.259063,0.639366,0.280913,-0.325628,0.38853,-1.132595,-2.087993,0.284837,-0.455946,-0.36421,0.555006,0.206291,-0.180623,-0.09342,0.603378,-0.127888,0.259184,-0.368042,0.333458,-0.805351,-1.004318,0.335436,0.279261,0.031744,-0.162622,0.025739,0.248819,-0.284651,-0.058195,-0.043206,0.290404,0.076534,-0.142466,1.126573,0.735372,-0.123776,-0.736018,0.163555,-0.329148,-0.394605,0.260371,0.161195,-0.217386,0.330609,0.029427,-0.501003,0.316681,0.015738,-0.458097,-0.804741,0.092665,-1.35626,0.03993,-0.676913,-0.098135,-0.518936,-0.384565,0.163939,0.250863,-0.272437,0.049638,0.14268,-1.039948,-0.514777,0.08284,-0.326439,-0.574411,0.74372,0.232087,-0.037865,0.5258,0.625038,-0.680414,-0.445149,0.096997,0.607539,0.347295,0.010648,-0.084741,0.022924,-0.077306,-0.598439,-1.415958,-0.176017,-0.3171,-0.206961,-0.208376,0.291694,0.146839,-0.074101,0.057643,-0.002036,0.153229,0.312553,0.081825,-0.353716,-0.505629,-0.330764,0.550205,0.236341,0.696506,0.174358,-0.502482,0.167705,0.920411,-0.189766,0.244003,0.195685,0.063336,-0.010577,-0.298776,-0.106109,0.070209,0.225745,0.248872,0.067258,-0.243325,-0.432063,-0.303253,0.089597,0.420611,-0.147034,-0.252297,0.10317,-0.383392,0.234016,-0.019977,-0.121212,0.110824,-0.217343,0.388794,0.353539,0.271424,-0.37367,-1.207976,0.288195,-0.450371,0.177715,0.460548,0.255466,0.024698,0.393867,0.086142,-0.36864,0.111549,-0.220389,0.250643,0.270215,-0.329804,0.518149,0.432245,0.109748,-0.184836,-0.086561,0.152914,0.242045,-0.544033,-0.221113,0.33386,-0.954256,0.012328,-0.0756,0.036654,-0.03501,-0.144728,-0.404234,0.158814,-0.07994,-0.625732,0.353693,-1.103025,0.028755,0.242799,-0.194407,0.080204,-0.567972,0.297961,-0.527566,-0.225622,-0.674552,0.133674,-0.150605,-0.237697,-0.133375,-0.164707,0.318444,0.592601,-0.093255,-0.700734,-0.350692,0.025376,-0.718828,-0.374974,0.241884,0.07385,-0.049337,-0.056007,0.129398,-0.124361,0.853132,-0.013535,0.439097,0.14225,-0.485386,0.218945,0.286547,-0.060922,0.037502,-0.036847,-0.20399,-0.09337,-0.076871,-0.22179,0.021425,0.111501,-0.098081,-0.104059,-0.69062,-0.032653,-0.654251,-0.067556,-0.836705,-0.000307,-2.729913,-0.248993,0.157174,0.364333,-0.03213,0.281609,-0.022703,-0.318803,-0.30083,-0.231899,0.213594,0.080233,-0.123107,-0.233449,-0.252309,0.231656,-0.244268,0.356493,0.350961],[-0.16779,-0.348189,-0.632622,-0.020523,-0.283596,0.466596,0.178127,0.290722,-1.650384,0.050412,-0.245123,-0.466334,-0.811888,0.004946,0.143728,-0.963787,0.761133,-0.144782,-0.252085,-0.123796,0.252379,0.416609,-0.184279,-0.464236,0.186891,-1.452818,0.332414,-0.149744,0.161322,-0.159215,-0.047175,0.103769,-0.444435,-0.157281,-0.074792,-0.301304,0.281818,0.04873,0.063929,0.230901,-0.312582,-0.344237,0.287968,0.308577,0.231693,0.107282,0.136826,0.693526,0.345458,-0.186308,0.21933,-0.350884,1.114568,-0.539741,-1.181315,-0.051965,-0.47208,-1.139323,0.705182,-0.02361,-0.167933,-0.053396,0.143925,-1.230247,0.211027,-0.007733,-0.221414,-0.01228,0.22775,-1.15604,-0.016713,0.179306,-0.527944,-0.395236,0.00861,0.23566,0.294459,0.615665,-0.808693,0.055358,0.683345,0.270002,0.057549,-0.813609,0.116197,-0.892337,-1.136042,0.17838,-0.175834,0.660324,0.198103,-0.529672,-1.351197,0.275334,0.072544,0.462173,-0.194087,-0.24548,-0.049276,-0.057848,-0.250838,-0.814234,0.10836,-0.226952,0.38662,-0.00534,-0.35774,-0.624547,0.078626,-0.03777,-0.589976,-0.601873,0.052126,-0.454695,0.242601,0.000987,-0.290122,0.265536,-0.075595,-0.151633,-0.632717,0.702733,-0.455593,-0.610621,-0.273569,0.530415,0.536859,0.185146,-0.275726,0.516249,-0.301974,0.197884,-0.368932,0.602287,-0.227646,-0.18533,0.085955,0.293291,0.377829,0.078104,-0.305881,0.34044,-0.05302,-0.931885,-0.216981,-1.303111,0.731578,-0.310427,-0.147697,0.368112,-0.620853,-1.774892,0.129245,-0.238976,0.122897,0.088267,-0.319277,-0.714776,0.109222,-0.283682,-0.208126,0.318467,-0.003699,0.603679,0.216704,-0.849964,0.135367,-0.043291,-0.457278,-0.212286,0.462267,-0.088498,-0.665112,0.095464,-0.509976,-0.08209,0.165131,-0.207636,0.420328,-0.046674,-0.106311,0.382278,-0.912495,-0.460726,0.276731,-0.310147,-0.038616,-0.510012,0.290362,-1.708201,0.480034,0.130405,-0.137955,-0.211887,-0.225844,-0.606201,-0.884959,-0.704332,-0.655112,-0.006854,0.309593,-0.05726,-0.306358,0.536349,-0.087557,0.071564,-0.50825,0.200675,0.335659,-0.71435,-0.265339,0.205463,0.014798,-0.379002,-0.359746,-0.600743,0.25482,-0.448839,-0.276973,0.900229,-0.308558,-0.249372,0.381166,0.342289,-0.177895,0.457557,-0.757679,0.164623,0.002548,-0.005012,-0.476531,0.11338,0.026474,0.352092,0.43809,-0.240089,-0.061166,-0.241517,-0.117727,0.401809,0.03445,-0.191287,0.233103,-0.19984,-0.891463,-0.134063,-0.623131,-0.648766,0.105433,0.365127,-0.359281,0.283,-0.020254,0.28125,-0.617427,-0.30161],[0.140076,-0.539123,-0.418186,-0.236243,-0.099885,-0.024099,-0.285315,0.266297,0.112785,0.314997,-0.622841,0.734104,0.738536,-0.404255,-0.856988,0.137344,-0.185045,-0.432157,-0.604598,-0.244343,-0.35178,-0.18504,-0.037219,-0.028794,-0.129268,-0.201193,-0.322885,0.305425,-0.193171,-0.127498,0.096729,-0.312116,0.109749,-0.070045,0.708535,0.520671,-0.366144,0.181691,0.348195,-1.480775,0.049781,-0.950172,0.066112,0.155705,0.129344,0.320748,0.266419,0.19694,0.208447,-0.256823,-0.264607,-0.134066,-0.605254,-0.385852,0.4715,-2.103104,-1.150964,-0.429614,0.304191,0.415673,-1.306498,0.036351,-0.000223,1.107736,0.094204,0.140976,-0.115073,0.102428,0.094445,0.411824,1.014955,0.093534,0.001985,-0.306727,0.368674,-0.538294,0.483448,-0.379804,-0.009249,0.280122,0.630747,-0.60682,0.26426,-0.421906,-0.032499,-0.205732,-0.098334,0.118348,-0.066991,-0.645197,-0.090103,-1.151186,0.37227,0.083701,0.21035,0.100919,0.679285,-0.084099,-0.187392,0.387774,-0.244161,-0.553466,-0.335142,-0.3031,-0.050983,0.736525,0.344789,-0.067652,0.615701,0.530195,-0.346366,0.106442,0.77382,-0.278249,-0.66229,-0.012963,-0.682695,0.153653,-0.208861,0.115857,-0.180701,0.276387,-0.396468,0.043844,0.799071,0.454272,-0.271035,0.032542,0.113806,0.049998,-1.121037,-0.817442,-1.062609,0.289145,0.419085,0.276823,0.25225,-0.112257,-0.554633,-0.190213,-0.390454,0.380586,-0.19067,0.443408,-0.390287,0.488175,0.094116,0.021605,0.180465,-0.17828,0.075064,-0.173914,-0.322955,-0.026949,-0.909949,0.295118,0.377637,-0.044336,-0.232651,-0.09469,-0.460377,-0.186782,0.17802,-0.288909,0.251071,0.487784,0.111713,0.084949,-0.004813,-0.100146,0.578566,-0.117137,0.097072,-1.215167,0.183049,0.905916,-0.094379,-0.294828,0.186279,-0.886595,-0.406765,-0.180209,-2.069103,-1.036106,0.387571,0.547032,0.481002,-0.075215,-0.40004,0.043055,-1.445258,0.108848,-1.922572,-0.114126,-0.352698,-0.070889,0.114309,-0.970061,0.415844,-0.050634,-1.50754,0.619223,0.112838,0.078925,0.340547,0.122658,-0.760523,-1.212374,0.135937,-0.679949,-0.370813,-1.290095,1.104473,-1.70811,-0.197127,-0.508494,-0.451066,0.232209,0.00115,-0.77152,-0.094173,-1.071504,-1.113777,0.312811,-0.043608,0.196555,0.749753,0.365612,0.335319,0.101683,-0.692445,-1.24429,-0.233495,0.187859,-0.132784,-0.361705,-0.421279,0.218461,0.025042,-0.002926,-0.702544,-1.277235,-0.269386,-0.411778,0.804276,-0.081178,-0.299174,0.005471,-0.492805,-0.107972,-0.076816,0.466328,0.144567,0.04364,0.021703,-0.428733],[0.218004,-0.974444,-0.23594,-0.175063,-0.320022,0.166082,0.246921,0.31825,-0.763225,-0.213989,0.104829,-0.130475,-0.316792,0.42859,-0.025665,-1.36645,0.388348,-0.142063,-0.475932,-0.937994,-0.224226,-0.369095,-0.104604,-0.223574,-1.063536,-1.543498,-0.563898,0.777064,0.44308,-0.040444,0.254597,0.318602,0.663045,-0.409986,-0.155723,-0.227997,-0.46432,-0.994462,0.389188,-0.260554,-0.344132,0.328205,-1.029743,0.028663,0.105368,0.336519,-0.820888,-0.794221,0.073277,0.154651,-0.351234,0.050599,0.039332,0.369992,-0.126625,0.098296,-0.464577,0.24872,0.002779,-0.175063,0.009507,-0.552823,-0.180347,0.408461,-0.006923,0.480975,0.032428,-0.065193,-0.302797,0.545297,0.584595,-0.095202,-0.022177,-0.628645,-0.675891,-0.597601,0.411426,-0.319447,-1.07839,-0.998687,-0.150868,-0.367869,-0.051099,-0.146896,0.197671,-1.576263,-0.238642,0.775182,0.068517,0.037853,-2.007996,0.575486,-0.938996,-0.143397,0.061675,-0.324587,-1.424725,0.16467,-1.776548,0.087025,-0.982551,-0.531064,-0.060877,-0.948065,-0.075221,0.108481,-0.960462,-0.302671,0.210849,-0.110339,0.698678,-0.779653,-0.535263,0.640105,0.253843,-0.12961,0.39917,-0.111995,-0.081955,-0.790749,-0.585529,-0.193142,-1.113295,-0.724454,0.679779,-0.771281,-0.254618,-0.633386,-0.022573,0.418501,-0.207,0.294084,0.487317,-0.057173,-0.004106,-0.662004,-0.384934,-0.469009,0.099508,0.031603,-1.069908,0.043385,-0.119751,-1.457694,0.018666,-1.327704,-1.270348,0.054735,0.438311,-0.416505,0.419621,-0.336408,-0.142565,-0.599615,-0.081266,-0.781484,-0.015677,-0.77629,-0.198286,-0.131601,-0.127483,0.333698,0.169911,0.414113,0.150994,-0.440533,-0.547277,-0.199908,0.226895,-0.837649,-0.222656,0.462884,-0.643456,-1.067433,-0.111398,-0.271415,-0.310701,0.482375,-1.779607,0.422872,-0.603671,-0.11624,-0.276474,-0.29467,-0.508141,0.233966,-0.344387,0.134358,-0.176869,-0.137575,0.517439,-1.574502,0.011526,-0.020049,-1.113842,-0.138276,-0.035896,-0.145265,0.194075,0.679365,-1.61023,-0.748105,0.927765,0.41128,-0.259162,-2.288323,-0.130823,-0.001682,-1.294791,-0.896833,-0.381425,0.568154,-0.127495,0.039365,-0.491383,0.117064,-0.686755,-0.875474,-0.620757,-0.026234,-1.138323,0.253011,-0.662165,-0.580288,-0.969196,-0.472261,-0.146009,-0.000938,0.150355,-0.425626,0.279696,0.257827,0.176504,-0.093854,-0.189296,0.156285,-0.39909,-0.059179,-0.020941,0.032645,-0.542926,-0.552316,-0.245149,0.314562,0.024333,-1.30284,0.344162,-0.288038,-0.337152,0.08354,0.516775,-0.073904,-0.205222,-0.143415,-0.105192,-0.188258],[-0.358225,-1.23724,-1.634951,0.330636,-0.392759,0.186487,0.160572,0.299924,-0.653053,-0.113039,0.151213,-0.325841,-0.293582,-0.113193,-0.073597,0.444112,-0.288761,-0.198932,0.089258,0.283657,0.140823,0.386129,0.314828,0.422266,-0.435417,0.835184,0.078964,0.250187,0.730516,0.659848,-0.279256,-0.397891,0.091597,-0.350406,-0.89045,-0.078339,-0.301871,-1.002139,0.021752,-0.174141,0.133919,-0.466633,-1.705109,-0.861194,-0.062489,0.29583,-0.51904,-0.094004,0.548055,-0.025879,0.424177,0.010199,-0.432099,0.300845,0.093536,-1.204266,0.486075,-0.609431,-0.626134,0.09175,0.511262,-0.236647,-0.149581,-0.540423,-0.635909,0.395831,0.228971,-0.913425,-1.218257,-0.4377,0.255259,-0.332434,-0.18838,-0.107078,0.340001,-0.314756,-0.321177,0.634929,-0.121998,-0.977076,0.465575,0.414339,0.05679,0.122638,-0.770946,-0.209116,-0.090457,-0.214384,0.047807,0.064596,0.353828,-0.006251,-0.572298,-0.448027,1.425925,-0.006023,-0.101033,-0.23216,-0.39401,-0.051736,0.056445,0.111213,0.350099,0.203457,-1.585327,0.072893,0.661775,-1.466442,-1.092057,0.44271,0.307217,0.099575,-0.701962,0.015571,0.361958,-0.223079,-0.115824,0.393622,-0.151126,0.231234,0.261271,-0.354631,-0.787901,0.149799,0.171525,-1.300511,-0.488315,-1.317512,0.020372,-0.25557,0.154713,0.016697,-1.119742,-0.177731,0.403314,0.349003,0.191789,-0.193108,-0.322286,-0.258671,0.401387,0.305673,-0.151338,-0.132207,0.257476,-0.019312,-0.066865,-0.724898,-0.14216,0.156051,-1.716704,-0.815516,0.07417,0.243752,0.134272,0.485992,-0.503457,0.164307,0.106171,-0.614109,0.423942,-0.253306,-0.580948,0.260423,-0.183666,-0.368822,-0.504633,1.023094,0.235811,-0.126355,-1.602796,0.561039,-0.023891,-0.066846,-0.443127,-0.022343,0.015089,-0.706107,0.651964,-0.040397,0.035273,0.250865,-0.838153,0.240252,0.106072,-0.043763,0.141447,-0.086405,-0.125301,0.026496,-0.454591,0.100262,0.105157,-0.159682,0.326604,-0.147862,0.761661,0.676802,-0.251227,0.090161,0.153504,-0.006348,0.178661,-0.720773,-0.143109,-0.495924,0.964063,0.378743,-0.220282,0.162709,0.960505,-0.198077,-0.069866,0.202109,-0.445268,-0.476289,-0.473501,0.208931,0.409212,0.39918,0.206236,-0.305527,-0.170126,-0.014083,0.127603,-0.397433,0.144876,-0.301977,-0.898644,0.2427,0.115742,0.285851,0.438206,-0.642924,0.161353,0.099548,-0.41911,-1.0845,-0.679028,0.150441,0.044198,-1.083679,0.015379,-0.438064,0.110011,0.043179,0.116674,0.029284,-0.676171,0.214903,-1.093601,-0.17563,-0.922199,-0.028811,-0.121984,0.050949],[-0.540912,0.196199,-0.100831,-0.381951,0.248314,-0.13744,0.230324,-0.032641,-0.425414,0.086697,-1.047084,-0.721694,-0.454391,-0.204946,-0.355803,-0.212716,-0.194187,0.151978,-0.291537,0.176936,-3.144218,-0.039964,0.0704,0.261995,-0.347057,-0.140757,0.060188,-0.240761,-1.432507,0.639337,-0.518189,-0.363433,-0.001769,-0.352643,-0.300336,0.22824,-0.584413,0.33198,0.489945,0.72148,0.62214,-0.06631,-1.781827,-0.176533,0.289597,0.028768,-1.14203,0.440174,-0.286501,-0.519225,0.477322,0.871124,0.021287,-0.702675,0.185575,0.104921,0.017344,-0.33402,-0.389331,-0.028366,-0.255509,1.05295,-0.529428,-0.977998,0.42526,0.58426,-0.159808,-0.154673,0.217623,-0.100207,0.361102,-0.513968,-0.60258,-0.327702,0.636122,0.189366,-0.356739,0.207981,-0.013079,-0.163982,-0.542628,-0.061894,0.029535,-0.218836,-0.395581,-0.006474,-0.029473,-0.138668,0.539709,0.059084,-2.099615,-2.295521,-0.876117,-0.209933,-0.374931,0.257142,0.334811,0.221886,-0.195262,0.169189,0.050746,0.159255,-0.226524,-0.039426,-0.032788,-0.099132,0.361921,-0.36918,-0.055693,0.026407,-0.799268,-0.538773,0.075695,-0.286166,-0.276583,0.27816,-0.334676,-0.280473,-0.609987,-0.30542,0.293194,0.128576,0.109981,0.299452,-0.55442,0.086622,0.207225,0.353763,-0.074239,-1.028782,0.248734,-0.204602,-0.040415,0.497211,-0.838191,0.551739,-0.78896,0.439506,0.142724,0.078487,-0.023037,0.371249,0.178955,-0.247855,-0.496907,-0.77394,-0.834053,0.495844,-0.627738,-0.044996,0.140392,0.293836,0.199891,-0.460062,0.114994,-0.099584,0.12085,-0.167642,1.159145,-0.25013,0.423604,0.028136,-0.054066,-0.7813,-0.138268,-0.493634,0.189257,0.349613,-0.150224,-0.278175,-0.324044,-0.099123,0.221567,0.013729,0.487775,0.406488,0.115406,-0.927647,-0.111059,-0.173142,-0.056946,-0.188538,-0.358897,0.379865,0.276754,0.050171,0.197606,-0.326622,-0.37623,0.118749,0.132788,0.423313,0.117367,0.853368,0.350408,0.220544,-0.932884,-0.253485,0.134138,-0.419167,0.135524,-0.225896,-0.007431,0.222031,-0.207859,-0.275888,-0.364024,-0.05522,0.275373,0.30865,0.447747,0.428196,-0.527892,-0.470969,-0.388802,-0.398726,-0.232178,-0.40095,0.843015,-0.014438,0.475548,-0.228297,0.598298,0.117504,-0.26087,-0.040605,-0.356787,0.129324,-0.240839,-1.15953,0.363805,-0.387334,-0.340908,-0.490256,0.836145,-0.669335,-0.543659,0.231364,-0.537656,0.349073,0.066118,-0.300093,0.26136,-0.077262,-0.393614,-0.244266,0.003567,-0.407878,-0.568976,0.249132,-0.531485,0.06322,-0.02912,0.183913,-0.142225,0.167822],[0.141109,0.264216,0.311601,-0.110417,-0.197278,-0.641243,-0.326132,0.226298,-0.170673,0.10022,0.264346,0.136539,0.103064,0.233949,-0.065303,-1.352816,-0.2568,-0.197046,-0.569798,-0.204099,-1.470063,-0.069674,-0.425686,0.018698,0.053758,0.08418,-0.264924,0.646595,-0.967467,0.218441,0.703327,-0.574727,0.301533,-0.089867,0.115899,-1.327982,0.125696,-0.004865,-0.34447,-0.214225,-0.531003,0.323531,0.491771,-0.12752,-0.522039,0.293583,-0.093799,0.235182,-0.160801,-0.413351,0.150223,-0.000753,-2.398387,0.347874,-0.577858,0.007214,-0.054973,-0.064307,-0.875301,-0.405849,0.262394,-0.591394,-0.318521,0.145959,-0.303377,-1.166938,0.671407,0.031078,-0.594486,-0.155963,-0.088157,-0.309853,-0.106912,-0.030044,-0.018318,0.040179,0.580443,-0.547397,-0.209932,-0.729984,-0.444771,-0.360369,0.335585,0.248711,0.104552,-0.303837,-0.562508,-0.63103,0.934511,0.050033,0.389509,-0.336399,0.407917,0.054591,-0.05191,-0.088593,-1.006035,-0.095083,-1.646763,0.040754,1.436797,0.042979,-0.106416,0.391747,-0.52044,-0.633812,-0.074761,0.258441,0.239982,-0.394122,0.362835,0.011171,-0.158031,0.757332,0.412543,0.07396,-0.076088,-0.407269,-0.451433,-0.045437,-2.721485,-0.364347,-0.143849,0.365062,0.427549,0.214357,-0.064386,-0.317038,-0.41774,-0.829014,0.293361,0.080404,-0.604536,0.02574,-0.125425,0.546326,-0.00614,0.014403,-0.088168,-0.231816,0.059939,0.210466,-1.262271,-0.337741,-0.834779,-0.235532,0.011819,0.15106,0.468639,0.226835,-0.294102,-0.076285,0.221969,0.313999,0.277026,0.189251,0.13264,-0.167433,-1.488446,0.36691,-0.142703,-0.077316,-0.607399,0.25856,0.586179,-1.589882,-0.093107,-0.897043,0.110386,-0.268382,-0.406734,0.110354,-0.649615,-0.076472,0.273077,-0.386923,0.215594,1.15055,-0.277983,-0.150764,0.002545,-0.42025,-0.126577,-0.37064,0.021205,-0.033595,-0.753826,0.10832,-1.507735,-1.004927,-0.233963,-0.376025,0.488745,-0.691033,-0.422928,0.195822,0.089669,-1.084229,0.174816,0.261905,0.621373,-0.982122,-0.305004,-1.039474,0.619764,-0.604567,-0.484603,-0.288243,0.050278,0.046532,-0.244301,0.246954,0.115869,-0.783754,0.285787,-0.480586,-1.041233,-0.392586,-1.169895,-0.361747,0.165841,0.285694,-1.093622,-0.414458,0.133408,-0.181741,-1.39675,0.295803,-0.214232,-0.329018,-0.928125,0.346751,-0.423071,-0.35787,0.303078,0.008699,0.051723,-0.404724,0.19857,-0.352795,-1.651376,0.881155,-0.167429,-0.012728,0.128261,-0.298246,0.220462,0.601272,-0.969612,-0.484398,-0.599949,0.150388,0.285747,0.329543,-0.283646,0.166202],[-0.935188,-0.512236,0.002497,0.090421,0.158527,-0.192344,-0.067215,0.17805,0.072216,0.239594,